{"array": {"bias_weights": {"layer_1": [0.13844232261180878, 0.029387695714831352, 0.009237769991159439, 0.16100585460662842, 0.002423713216558099, 0.07799366861581802, -0.09251711517572403, 0.05952978879213333, 0.2071458399295807, 0.21448121964931488], "layer_2": [0.16447913646697998, 0.2505946457386017, -0.13358862698078156, -0.0055516608990728855, -0.10114883631467819, -0.1365426927804947, 0.042662620544433594, 0.05548185482621193, -0.017793895676732063, -0.019205367192626], "layer_3": [-0.0953739807009697, 0.31541696190834045, -0.24841473996639252, -0.02233799546957016, -0.21351395547389984, 0.2873775362968445, -0.10442021489143372, 0.22910906374454498, -0.08670971542596817, -0.16464723646640778]}, "kernel_weights": {"layer_1": [[-0.057425402104854584, 0.05140157788991928, -0.04089696705341339, -0.03983944654464722, 0.04342075437307358, -0.08116930723190308, 0.040609218180179596, 0.0736859068274498, -0.05366836488246918, 0.03894834965467453], [-0.05706440657377243, -0.017859160900115967, 0.037678226828575134, 0.0818224772810936, -0.0366300567984581, 0.007295817136764526, -0.010156579315662384, 0.03239535540342331, -0.04533771798014641, -0.02940889075398445], [-0.027800530195236206, -0.02456500753760338, 0.0004257410764694214, -0.05764078348875046, -0.02696157991886139, 0.0598999485373497, -0.010346591472625732, 0.05244343727827072, -0.03354595601558685, 0.07878170162439346], [-0.02569384127855301, 0.0753074660897255, 0.032660312950611115, -0.008436471223831177, 0.04404126852750778, -0.057807356119155884, 0.02332831174135208, 0.04185573011636734, -0.04897703975439072, -0.0646781325340271], [-0.032590217888355255, -0.025349467992782593, -0.03752649948000908, 0.0821739062666893, -0.08364055305719376, 0.031227000057697296, -0.07417703419923782, -0.0024145469069480896, 0.04452500492334366, -0.0062074363231658936], [-0.05153369531035423, 0.07288659363985062, 0.07584264129400253, -0.04082048684358597, 0.038243286311626434, -0.06374287605285645, -0.049912381917238235, -0.0163591131567955, -0.0697673037648201, 0.08328229933977127], [0.008477792143821716, 0.04129331558942795, -0.042110029608011246, -0.07208224385976791, 0.082733653485775, -0.03821326047182083, -0.027811702340841293, -0.08260670304298401, -0.06270261853933334, -0.06154667213559151], [0.08123349398374557, -0.050893694162368774, -0.023799553513526917, -0.0030873343348503113, -0.05363176017999649, -0.013751029968261719, 0.011075720191001892, 0.03608885407447815, -0.04213467240333557, -0.055798035115003586], [-0.03124544396996498, -0.005523577332496643, -0.08687072992324829, -0.01995702087879181, 0.0670933797955513, -0.0109962597489357, 0.0008088946342468262, -0.018524199724197388, -0.05818623676896095, 0.06744391471147537], [0.025155767798423767, 0.030111297965049744, -0.015331022441387177, -0.023653104901313782, -0.01607104390859604, -0.04322002828121185, 0.08152385801076889, -0.05723965913057327, 0.0539112314581871, -0.08617416769266129], [-0.033862970769405365, -0.009894408285617828, 0.07386743277311325, 0.08573175221681595, -0.0038341358304023743, -0.015160202980041504, 0.079381562769413, -0.07136773318052292, -0.0834532156586647, -0.004292771220207214], [-0.015837863087654114, 0.08308660238981247, -0.06527593731880188, 0.07266073673963547, 0.08153853565454483, -0.07504764944314957, 0.06787044554948807, -0.0779552161693573, 0.02204735577106476, -0.04539971053600311], [0.06423771381378174, -0.07629147171974182, -0.08786115795373917, -0.010767187923192978, -0.008436672389507294, -0.07954782992601395, 0.0024289179127663374, -0.08982878923416138, -0.021224651485681534, 0.08604192733764648], [0.07004893571138382, 0.07704837620258331, -0.057075779885053635, 0.07139024138450623, -0.018923208117485046, -0.0665813460946083, 0.042162682861089706, 0.006469965912401676, 0.06674142181873322, 0.041419196873903275], [-0.03025909885764122, -0.025679316371679306, -0.0125227440148592, 0.08472442626953125, 0.013130463659763336, -0.03951447829604149, 0.0027379090897738934, -0.011193719692528248, -0.042866744101047516, 0.08465442061424255], [0.002954079071059823, -0.013210033997893333, 0.08135298639535904, -0.030023712664842606, 0.0666927918791771, 0.07694757729768753, -0.06912804394960403, 0.048335395753383636, 0.0776859000325203, -0.012698421254754066], [0.07732924073934555, 0.06241161376237869, -0.04615531861782074, 0.05992450565099716, 0.004743821918964386, -0.05097029358148575, -0.05772241950035095, 0.06525937467813492, -0.06056521460413933, 0.07413726300001144], [0.0007312968373298645, -0.0604730099439621, -0.03953731060028076, 0.031494975090026855, 0.03665206581354141, -0.059031590819358826, 0.06089729815721512, -0.08289317041635513, -0.02756572887301445, 0.05398178845643997], [-0.06835535913705826, -0.01568671315908432, -0.03443578630685806, -0.024970896542072296, 0.07333401590585709, 0.03630431741476059, -0.024029210209846497, -0.07963705062866211, 0.05728136748075485, 0.0832023099064827], [-0.017810307443141937, 0.057682253420352936, 0.0540035143494606, -0.05727348476648331, 0.0406937375664711, -0.06938904523849487, 0.07495114952325821, 0.07691609114408493, 0.009197674691677094, -0.029752708971500397], [0.04273339360952377, 0.010848894715309143, 0.02055925875902176, -0.07758592814207077, 0.04930620640516281, 0.030147947371006012, 0.08221083134412766, 0.07064913958311081, 0.036403216421604156, 0.00011289119720458984], [0.07675302773714066, 0.016674160957336426, 0.037091366946697235, -0.06143280863761902, 0.0401175394654274, 0.011533252894878387, 0.07947704941034317, -0.08493629097938538, 0.07989027351140976, -0.03824269026517868], [-0.041599519550800323, -0.007647387683391571, -0.04313528165221214, -0.010482758283615112, -0.005175039172172546, 0.07997054606676102, -0.00317981094121933, -0.06390256434679031, -0.009381324052810669, -0.004406079649925232], [0.016975075006484985, 0.04874012619256973, -0.013737209141254425, -0.07787229120731354, -0.058628231287002563, -0.018654190003871918, -0.07820646464824677, 0.05785197764635086, 0.0696888193488121, 0.04812409728765488], [-0.02016773819923401, -0.08500039577484131, 0.023159295320510864, 0.06653384119272232, -0.022393636405467987, 0.044612325727939606, -0.04477011039853096, 0.02755466103553772, 0.0650719627737999, -0.06303078681230545], [-0.00606951117515564, -0.06838588416576385, 0.058307237923145294, 0.04471205919981003, 0.03970970958471298, 0.004349209368228912, 0.08629400283098221, -0.0632513239979744, -0.011159613728523254, 0.017504751682281494], [0.019392162561416626, 0.0680089071393013, -0.051545944064855576, -0.07081951946020126, 0.06731481105089188, 0.007906042039394379, 0.05132739990949631, 0.07342179864645004, 0.04941321164369583, 0.0484965518116951], [0.01413629949092865, 0.06383218616247177, -0.017952263355255127, -0.04032688960433006, -0.08399632573127747, -0.06056220829486847, -0.06681563705205917, -0.07025524973869324, 0.02726278454065323, -0.02274039387702942], [0.08500847965478897, 0.0525931641459465, -0.020483344793319702, -0.013685286045074463, 0.01650501787662506, 0.0228789821267128, -0.07553263008594513, 0.0014554709196090698, -0.007166743278503418, 0.013083651661872864], [-0.013186052441596985, -0.02001573145389557, 0.008642666041851044, 0.022390007972717285, 0.008095763623714447, -0.014122948050498962, -0.07276172935962677, 0.060044609010219574, -0.0581497997045517, 0.0751427635550499], [0.08112236112356186, 0.046575553715229034, -0.07239042967557907, 0.06618984788656235, -0.07128238677978516, -0.06586037576198578, -0.03186103329062462, 0.06270643323659897, -0.07783695310354233, -0.04880395904183388], [0.0027618035674095154, -0.0865277647972107, 0.053524263203144073, -0.061346713453531265, 0.017620109021663666, 0.035782381892204285, -0.015520349144935608, 0.044481612741947174, -0.006961353123188019, -0.06092575937509537], [0.04361570626497269, -0.03542120009660721, -0.047056686133146286, 0.067764051258564, 0.012568637728691101, -0.033553335815668106, 0.017581496387720108, -0.0001332234824076295, 0.055257510393857956, -0.06758953630924225], [0.050371453166007996, 0.05746414139866829, -0.015720508992671967, 0.020404616370797157, -0.06794346123933792, -0.07584691792726517, -0.017591673880815506, 0.0164797306060791, 0.08634411543607712, -0.05322708934545517], [0.007382431998848915, -0.01964956894516945, -0.05314113199710846, 0.02850569784641266, 0.054297201335430145, -0.02479797601699829, -0.03595907241106033, -0.09273078292608261, -0.03781099617481232, -0.04733285307884216], [0.0018470108043402433, -0.04383409023284912, -0.10302166640758514, -0.11481103301048279, -0.035913340747356415, 0.12110529094934464, 0.12193767726421356, -0.06882686913013458, 0.11435506492853165, -0.01626475341618061], [-0.016326528042554855, -0.09397261589765549, -0.06617394834756851, -0.0012543334160000086, 0.06033056229352951, 0.06529741734266281, 0.04102261736989021, -0.014751482754945755, 0.08189016580581665, -0.06298849731683731], [-0.06284991651773453, 0.011154619045555592, -0.13647682964801788, -0.12729980051517487, 0.04423734173178673, 0.019820796325802803, 0.024071622639894485, -0.11770942807197571, 0.13580049574375153, -0.07654391974210739], [0.03973623365163803, -0.1433776468038559, -0.15146641433238983, -0.04830319806933403, 0.06673625111579895, -0.027227167040109634, 0.09442251920700073, -0.07847176492214203, 0.04970727488398552, -0.0003239327052142471], [0.013406606391072273, -0.04864447936415672, -0.1312093734741211, -0.08421991765499115, -0.07046494632959366, 0.16223794221878052, 0.054604388773441315, -0.06935754418373108, 0.16616280376911163, -0.04204361513257027], [-0.0705995261669159, 0.0021939256694167852, -0.15045757591724396, -0.08436235785484314, 0.07715915888547897, 0.06590388715267181, 0.10491876304149628, -0.08193749189376831, 0.018828388303518295, -0.08230706304311752], [-0.06250720471143723, -0.05565032362937927, -0.13212159276008606, 0.005608043167740107, 0.08848259598016739, 0.12457071244716644, 0.08274654299020767, -0.149276465177536, 0.12967051565647125, -0.05423489958047867], [-0.06738118827342987, -0.001031656633131206, -0.03791218623518944, -0.03226952627301216, 0.026384718716144562, 0.08892770111560822, 0.10780070722103119, -0.0241067074239254, 0.029093163087964058, 0.042926184833049774], [-0.03446086496114731, -0.01785968616604805, -0.013492957688868046, -0.10780712962150574, -0.03767895698547363, 0.04941882938146591, 0.11662555485963821, -0.05762043967843056, 0.1667892038822174, 0.02133861929178238], [0.07407215237617493, -0.03791547566652298, -0.07929899543523788, -0.10069025307893753, -0.11893058568239212, 0.0872233659029007, 0.11490406841039658, -0.07636455446481705, -0.014469957910478115, 0.05252409353852272], [0.025195153430104256, -0.07497932016849518, -0.08226242661476135, -0.034027352929115295, -0.03666800633072853, -0.033602774143218994, 0.16571533679962158, -0.12188573181629181, 0.11523745954036713, 0.01720367930829525], [0.09475597739219666, -0.01810627058148384, -0.04231793433427811, -0.032774683088064194, 0.09205415099859238, 0.031804412603378296, 0.09369479864835739, -0.16554436087608337, 0.136285662651062, -0.05308474600315094], [-0.032667603343725204, 0.006409631110727787, -0.031011277809739113, -0.09457150101661682, -0.02846183255314827, 0.07271823287010193, 0.034647081047296524, -0.1318100243806839, 0.1429556906223297, 0.027459776028990746], [0.027373380959033966, -0.03057730942964554, -0.15176700055599213, 0.04331111162900925, 0.007309924811124802, -0.06558903306722641, 0.019746914505958557, -0.009517666883766651, 0.013980083167552948, -0.01236768625676632], [-0.1020682230591774, -0.043943677097558975, -0.12344454228878021, -0.08144698292016983, -0.01860056445002556, -0.0066342586651444435, 0.05284920334815979, -0.06434007734060287, 0.025885891169309616, -0.07075337320566177], [-0.10568643361330032, -0.08359991759061813, -0.03058652952313423, 0.05848829448223114, 0.015687402337789536, 0.081091970205307, 0.0014375203754752874, -0.014997553080320358, -0.03405354171991348, -0.09176229685544968], [0.03688051179051399, 0.08056095242500305, 0.04256594926118851, 0.026284387335181236, 0.05942650884389877, -0.026735082268714905, 0.0015145379584282637, 0.024837946519255638, -0.007547385059297085, -0.08803782612085342], [-0.04824262857437134, -0.06733964383602142, 0.025555208325386047, 0.042311765253543854, 0.06936604529619217, -0.08671987056732178, -0.043528962880373, -0.038070108741521835, -0.08045278489589691, -0.030615616589784622], [0.012969493865966797, -0.0005611032247543335, 0.025364719331264496, -0.048625946044921875, 0.018072672188282013, -0.0001324787735939026, -0.05051198974251747, 0.013840541243553162, -0.035900332033634186, -0.060216695070266724], [-0.009451523423194885, 0.0526428297162056, 0.050086118280887604, 0.06809746474027634, 0.025330252945423126, -0.07438486814498901, 0.006533615291118622, 0.03397010266780853, 0.04663648456335068, -0.06727862358093262], [-0.004806682467460632, 0.03892659395933151, -0.029443275183439255, -0.05402948334813118, -0.05121995508670807, 0.08665654808282852, -0.027774333953857422, 0.020990021526813507, -0.04912462458014488, 0.06595446914434433], [0.082600437104702, -0.05567600205540657, 0.07924699038267136, 0.058058001101017, -0.07717960327863693, -0.008396387100219727, 0.015948057174682617, -0.06392285227775574, -0.02624501660466194, -0.036605849862098694], [0.03164243698120117, 0.030325978994369507, -0.0650862380862236, -0.04762169346213341, 0.01302310824394226, 0.029104970395565033, -0.04340377822518349, 0.01963183283805847, 0.014983035624027252, 0.03380906581878662], [0.04510597139596939, -0.08578633517026901, -0.07799059897661209, 0.02743978053331375, 0.0553068146109581, -0.030337970703840256, -0.0913674384355545, -0.012305987998843193, 0.07997345924377441, -0.047611311078071594], [-0.02398340404033661, 0.04684937000274658, 0.054169997572898865, -0.07072354853153229, 0.011252528987824917, -0.05437803640961647, -0.02385702170431614, 0.00874839723110199, 0.07116871327161789, 0.002772536128759384], [-0.052972737699747086, -0.07058397680521011, 0.06153262034058571, -0.02722671441733837, 0.023155881091952324, 0.027504412457346916, -0.04188216105103493, 0.01920471340417862, 0.021593492478132248, -0.046433500945568085], [-0.010582184419035912, -0.08223205804824829, -0.08180320262908936, 0.04540994390845299, -0.03840801492333412, 0.051535334438085556, -0.04395918920636177, -0.05127117410302162, 0.06749991327524185, 0.07204665243625641], [-0.09410586953163147, -0.10969505459070206, -0.04291176423430443, 0.006055866368114948, 0.05421757698059082, -0.03579998016357422, 0.07912683486938477, 0.002382769947871566, 0.05872660130262375, 0.07331102341413498], [-0.13240405917167664, -0.12119768559932709, -0.12013337016105652, -0.03309936448931694, -0.10684444010257721, 0.11663034558296204, 0.17275625467300415, -0.013006344437599182, 0.09735235571861267, -0.0253958310931921], [-0.13483400642871857, -0.1673288494348526, -0.17867353558540344, -0.14024411141872406, -0.004131011664867401, 0.04491046071052551, 0.21614712476730347, -0.11687733978033066, 0.22242270410060883, 0.04130750149488449], [0.002501497743651271, -0.22275109589099884, -0.2527300715446472, -0.13412049412727356, -0.046533938497304916, 0.08490603417158127, 0.18692131340503693, -0.18341979384422302, 0.23645399510860443, 0.050522785633802414], [-0.08188112080097198, -0.17401836812496185, -0.22453880310058594, -0.2378518432378769, 0.015867725014686584, 0.07087710499763489, 0.15517829358577728, -0.12360189110040665, 0.21262197196483612, 0.04934151843190193], [-0.015714799985289574, -0.23987850546836853, -0.2381754368543625, -0.2400633543729782, -0.14383935928344727, 0.20388314127922058, 0.13664452731609344, -0.2164207249879837, 0.248859241604805, 0.022047778591513634], [-0.022873032838106155, -0.2314155548810959, -0.1735655516386032, -0.21423371136188507, -0.08901721984148026, 0.17448848485946655, 0.14430148899555206, -0.1779828518629074, 0.17223340272903442, 0.13594123721122742], [-0.132720947265625, -0.158683642745018, -0.16188813745975494, -0.2931325137615204, -0.03941579535603523, 0.06031053885817528, 0.23037835955619812, -0.28132712841033936, 0.2547988295555115, 0.14927278459072113], [-0.06835770606994629, -0.13325223326683044, -0.2690095603466034, -0.15343904495239258, -0.12677080929279327, 0.06808944046497345, 0.2200099527835846, -0.20350240170955658, 0.24246422946453094, 0.1846475899219513], [-0.07376407086849213, -0.14651820063591003, -0.233737513422966, -0.1749609261751175, -0.11116175353527069, 0.26012736558914185, 0.21954621374607086, -0.1868160516023636, 0.2588071823120117, 0.20220275223255157], [-0.11681939661502838, -0.11046628654003143, -0.2672918438911438, -0.20386365056037903, -0.09026913344860077, 0.14088262617588043, 0.25706398487091064, -0.24406346678733826, 0.30617284774780273, 0.16008569300174713], [0.030604686588048935, -0.10655306279659271, -0.16177184879779816, -0.22750259935855865, -0.03913703188300133, 0.12297485768795013, 0.17378850281238556, -0.2332586944103241, 0.3043420612812042, 0.182846799492836], [-0.015153566375374794, -0.16520176827907562, -0.24222524464130402, -0.15651606023311615, 0.027271615341305733, 0.1314460039138794, 0.19432196021080017, -0.2252785861492157, 0.18720689415931702, 0.1436595469713211], [-0.044476468116045, -0.1270918995141983, -0.1836535781621933, -0.22267378866672516, 0.08174890279769897, 0.2120814323425293, 0.19302622973918915, -0.25746768712997437, 0.19183173775672913, 0.044963568449020386], [-0.021796194836497307, -0.26360058784484863, -0.17031988501548767, -0.15552829205989838, 0.056092895567417145, 0.08700433373451233, 0.1968710571527481, -0.10994108766317368, 0.17971564829349518, 0.12356207519769669], [-0.040336973965168, -0.11562962830066681, -0.21433547139167786, -0.15424466133117676, 0.08313663303852081, 0.025764085352420807, 0.09032568335533142, -0.16112126410007477, 0.20013974606990814, 0.0268076304346323], [-0.008899182081222534, -0.04808012768626213, -0.1748799830675125, -0.10073632001876831, 0.06591085344552994, 0.03721299022436142, 0.07160273939371109, -0.07054170221090317, 0.09388834238052368, -0.04993148893117905], [-0.07620988041162491, -0.12339889258146286, -0.12711778283119202, -0.0538734532892704, 0.047917965799570084, 0.006742313038557768, 0.11204343289136887, -0.0313054583966732, 0.10366596281528473, 0.0647490844130516], [-0.07909823209047318, -0.05814273655414581, 0.013531722128391266, -0.04938206449151039, 0.01971755549311638, 0.10370519757270813, 0.041766904294490814, -0.028096036985516548, -0.03000478260219097, 0.041913118213415146], [0.0498524010181427, -0.060944564640522, -0.07416009902954102, -0.08364909887313843, -0.06995054334402084, 0.08731173723936081, 0.06343210488557816, -0.07357338815927505, 0.097207210958004, -0.07378686219453812], [-0.011103078722953796, -0.0026097148656845093, -0.0524984709918499, 0.08580004423856735, -0.04879863187670708, -0.06154022738337517, -0.004303880035877228, 0.08565986901521683, 0.05324264615774155, -0.0420357920229435], [-0.00249539315700531, -0.040462102741003036, -0.08202145993709564, 0.06748347729444504, -0.058178506791591644, -0.03165352717041969, -0.03282572329044342, -0.08205965161323547, 0.08235488086938858, 0.02483019232749939], [0.07738279551267624, 0.019887730479240417, -0.07769037783145905, 0.00878334790468216, -0.05085588991641998, 0.012042835354804993, 0.011737674474716187, -0.03421059995889664, -0.06518006324768066, -0.06676790863275528], [0.01411014050245285, 0.06957101076841354, 0.005406148731708527, 0.0063385069370269775, -0.07700979709625244, 0.006633743643760681, -0.015169382095336914, 0.04987768083810806, -0.07996337115764618, 0.01105501502752304], [-0.09644089639186859, -0.048778414726257324, 0.052230242639780045, 0.03233680874109268, -0.09609465301036835, -0.02105819620192051, 0.01126100867986679, -0.09047797322273254, 0.008062200620770454, 0.0810844674706459], [-0.06752276420593262, -0.031225813552737236, 0.0016090513672679663, 0.0012400327250361443, 0.046452488750219345, 0.0359850749373436, 0.040211211889982224, -0.02128913812339306, -0.038906484842300415, 0.01441829465329647], [0.041104938834905624, -0.09766122698783875, -0.05845257639884949, 0.028509346768260002, -0.08357696235179901, 0.06842011213302612, 0.04831403121352196, 0.05883102864027023, 0.03759413957595825, 0.025051195174455643], [-0.014952375553548336, 0.072231225669384, 0.014689789153635502, -0.11201351135969162, 0.05352015420794487, -0.037994660437107086, 0.06176883354783058, 0.03992213308811188, -0.03717406839132309, 0.028116276487708092], [-0.08083359152078629, -0.09980098903179169, -0.0694003626704216, -0.03925611451268196, -0.07387667894363403, 0.02311858721077442, 0.04797438159584999, -0.0936964824795723, 0.01785203628242016, 0.04026629403233528], [0.05541282147169113, -0.1446293592453003, -0.13666900992393494, -0.19356243312358856, -0.08468198031187057, 0.14933063089847565, 0.08974088728427887, -0.18371626734733582, 0.08797574788331985, 0.010844678618013859], [-0.042032159864902496, -0.10710172355175018, -0.12222885340452194, -0.0956774353981018, -0.040993817150592804, 0.11892995238304138, 0.1862696409225464, -0.1992103010416031, 0.14511871337890625, 0.004250204656273127], [-0.03321092203259468, -0.019239850342273712, -0.2989124059677124, -0.2885834574699402, -0.017385952174663544, 0.1047169640660286, 0.18895141780376434, -0.19554229080677032, 0.07911860197782516, 0.1654241681098938], [0.10362238436937332, -0.026342548429965973, -0.23552362620830536, -0.22088205814361572, -0.13929972052574158, 0.14112256467342377, 0.07483373582363129, -0.1422666311264038, 0.08694180101156235, 0.17544971406459808], [0.16100920736789703, 0.019789766520261765, -0.35934096574783325, -0.19078020751476288, -0.14680342376232147, 0.043655648827552795, 0.07993955165147781, -0.1922709345817566, 0.18421612679958344, 0.17504532635211945], [0.14423660933971405, 0.002157853450626135, -0.2211495190858841, -0.18422958254814148, -0.05884769558906555, 0.14995843172073364, 0.1773565411567688, -0.2323477566242218, 0.11965802311897278, 0.036468327045440674], [0.11229727417230606, -0.0006356925587169826, -0.2560725212097168, -0.19454947113990784, -0.11352482438087463, 0.13118816912174225, 0.005318595562130213, -0.2503166198730469, 0.19871093332767487, 0.16914305090904236], [0.10849229246377945, 0.033093735575675964, -0.2417808324098587, -0.26001936197280884, -0.06026466190814972, 0.0744406059384346, 0.054822854697704315, -0.27448779344558716, 0.18958574533462524, 0.095046266913414], [0.06383024156093597, 0.010892868041992188, -0.2117040753364563, -0.20048436522483826, -0.053585853427648544, 0.05721447616815567, 0.013207288458943367, -0.23481141030788422, 0.18281446397304535, 0.10204286128282547], [0.14781561493873596, -0.07551110535860062, -0.2498631775379181, -0.18707406520843506, 0.09702980518341064, 0.07607802748680115, 0.08167519420385361, -0.25190192461013794, 0.1533566564321518, 0.10681431740522385], [0.04119301959872246, -0.1696431189775467, -0.2908768951892853, -0.17768597602844238, 0.010420960374176502, 0.11629387736320496, 0.11357920616865158, -0.10932786017656326, 0.26380690932273865, 0.2126103937625885], [0.10086007416248322, -0.141698956489563, -0.15938031673431396, -0.11088944226503372, 0.1286923587322235, 0.009874992072582245, 0.2258247435092926, -0.18093125522136688, 0.2288098782300949, 0.15278059244155884], [-0.07823453098535538, -0.17264324426651, -0.18776269257068634, -0.12274302542209625, 0.030448798090219498, 0.14782807230949402, 0.24817641079425812, -0.0669228732585907, 0.16376465559005737, 0.17093630135059357], [-0.04076065868139267, -0.1882776916027069, -0.16000401973724365, -0.1033046767115593, 0.06982584297657013, 0.04555665701627731, 0.21623143553733826, -0.03301633521914482, 0.30559229850769043, 0.08365586400032043], [-0.09670685231685638, -0.21588775515556335, -0.15956200659275055, -0.1703660637140274, 0.10621044039726257, 0.03600737452507019, 0.11525081843137741, -0.08982755243778229, 0.1638672947883606, 0.07594487816095352], [-0.13694947957992554, -0.09145359694957733, -0.14252685010433197, -0.12375608086585999, 0.041085194796323776, 0.10987070947885513, 0.17142079770565033, -0.04014222323894501, 0.2660940885543823, 0.04352959617972374], [-0.02747553028166294, -0.1773901730775833, -0.05013642832636833, -0.14232265949249268, 0.13371670246124268, 0.03358287736773491, 0.16048571467399597, 0.046368226408958435, 0.20703254640102386, 0.06556449830532074], [0.009602468460798264, -0.10173183679580688, -0.14582015573978424, -0.07072481513023376, 0.020538076758384705, -0.04459163919091225, 0.09732392430305481, -0.052118390798568726, 0.009519203566014767, -0.04111973196268082], [0.01824762299656868, -0.07329435646533966, 0.02376500703394413, -0.07316029071807861, 0.04032787308096886, 0.05908878520131111, 0.09798148274421692, -0.053933583199977875, -0.013220010325312614, -0.05441611260175705], [0.0667237639427185, -0.07389567792415619, 0.04096881300210953, -0.0801113024353981, 0.0013123806565999985, -0.025419089943170547, -0.03635793179273605, 0.0143669368699193, -0.004360179416835308, 0.06120985373854637], [0.018546298146247864, -0.0822170227766037, -0.009267643094062805, 0.01624371111392975, -0.059132710099220276, -0.04777371510863304, 0.02586277574300766, 0.03956487029790878, 0.049391500651836395, -0.061122648417949677], [-0.04019008204340935, 0.04107006639242172, 0.007959239184856415, -0.029019854962825775, 0.002863585948944092, 0.021576404571533203, -0.04835740849375725, 0.04818061739206314, -0.0005607903003692627, -0.05762513726949692], [0.056921884417533875, -0.0008307336829602718, 0.07487445324659348, 0.029962316155433655, -0.07969716936349869, -0.05576243996620178, -0.05381689593195915, 0.026468999683856964, -0.045225877314805984, 0.04454844817519188], [0.011267980560660362, -0.03908217325806618, -0.04633645713329315, 0.047962166368961334, -0.08102221041917801, -0.0485527366399765, 0.03870585933327675, -0.017144758254289627, -0.07636184990406036, 0.017539212480187416], [0.0526147335767746, 0.07947103679180145, -0.056976281106472015, -0.014669336378574371, 0.008784674108028412, 0.08009318262338638, -0.03216506540775299, -0.049821026623249054, -0.07468105852603912, 0.012227045372128487], [-0.011506186798214912, 0.006261755246669054, -0.06909298151731491, 0.028516985476017, 0.06067798659205437, 0.072623111307621, 0.05906886234879494, 0.07611653953790665, -0.09349635988473892, -0.07378634810447693], [0.09283436834812164, 0.05313077196478844, 0.003548483829945326, 0.018060537055134773, 0.016873931512236595, 0.03085908479988575, 0.06051535904407501, -0.060184136033058167, -0.06393440067768097, -0.04543875530362129], [0.05800919234752655, 0.0780055969953537, -0.03465251997113228, -0.1578482985496521, -0.13018973171710968, 0.05454833060503006, -0.03156690672039986, -0.023886270821094513, -0.06257274746894836, 0.04875421151518822], [0.13265801966190338, 0.0770440399646759, -0.12327362596988678, -0.08814569562673569, -0.11527273058891296, 0.1979903280735016, -0.029358364641666412, -0.02479601837694645, -0.09810138493776321, -0.01133862417191267], [0.21077831089496613, 0.11315952986478806, -0.06890035420656204, -0.1115996390581131, -0.1627034991979599, 0.1921408325433731, 0.047515250742435455, -0.16771887242794037, -0.03756379708647728, 0.1425369828939438], [0.0647938922047615, 0.029525967314839363, -0.04768476262688637, -0.1859615296125412, -0.21137183904647827, 0.0594528503715992, 0.09905501455068588, -0.09704192727804184, -0.05905000492930412, 0.053626906126737595], [0.08487839251756668, -0.0017769248224794865, -0.15302734076976776, -0.09853560477495193, -0.07024572789669037, 0.054220616817474365, -0.03279959410429001, -0.14205095171928406, -0.10965336114168167, 0.1369989812374115], [0.22707827389240265, 0.04890001192688942, -0.11930039525032043, -0.011308501474559307, -0.03652210161089897, 0.19260050356388092, 0.004276858642697334, -0.22718673944473267, 0.035976942628622055, 0.16789591312408447], [0.06795810908079147, 0.13876064121723175, -0.04714513570070267, -0.1256236881017685, -0.10189636051654816, 0.1615150272846222, -0.013281038962304592, -0.2608434855937958, 0.07646498829126358, 0.1328878402709961], [0.17524321377277374, 0.1510864943265915, -0.12620632350444794, -0.035810526460409164, -0.0842171236872673, 0.1925792694091797, -0.022815627977252007, -0.25280359387397766, 0.1078726276755333, 0.05963025614619255], [0.13463449478149414, 0.045132849365472794, -0.13235075771808624, -0.06551886349916458, -0.0031104907393455505, 0.1518523246049881, -0.020971078425645828, -0.23468875885009766, 0.14682792127132416, 0.1924445629119873], [0.066497802734375, 0.16862982511520386, -0.11642703413963318, 0.042979780584573746, -0.02571597509086132, 0.16697388887405396, 0.04981750622391701, -0.27883678674697876, 0.19289016723632812, 0.13203944265842438], [0.035322610288858414, 0.06086968630552292, -0.009963510558009148, 0.04274839162826538, 0.008534618653357029, 0.13558174669742584, 0.04230782389640808, -0.24415020644664764, 0.07446926832199097, 0.12480106949806213], [0.13425321877002716, 0.09773994237184525, -0.08265084773302078, -0.01588613912463188, -0.022808941081166267, 0.07861018180847168, 0.12985001504421234, -0.1856943815946579, 0.1663135588169098, 0.12581804394721985], [0.025894131511449814, 0.004288680851459503, -0.11233870685100555, -0.000774859800003469, 0.04656655713915825, 0.010937807150185108, 0.11586298048496246, -0.1622893214225769, 0.21226225793361664, 0.0007559049408882856], [-0.05081017315387726, -0.06360804289579391, -0.1579766422510147, 0.0010124810505658388, 0.05519946664571762, -0.020834295079112053, -0.0005226511275395751, -0.08020010590553284, 0.12845274806022644, 0.08265025168657303], [-0.12100391834974289, -0.15884701907634735, -0.03994407504796982, -0.0004066396504640579, 0.06794983148574829, 0.005313382484018803, 0.08836302906274796, -0.0004966198466718197, 0.2610557973384857, 0.13346831500530243], [-0.12657031416893005, -0.18935328722000122, -0.0664745345711708, 0.053677935153245926, -0.008679433725774288, 0.09248331189155579, 0.0897945836186409, -0.028945554047822952, 0.17379352450370789, 0.016638565808534622], [-0.07298609614372253, -0.18943890929222107, -0.009004396386444569, 0.03396725282073021, 0.10494491457939148, -0.05715464428067207, 0.09083812683820724, 0.05411083251237869, 0.2665562331676483, 0.08559980243444443], [-0.09373775124549866, -0.2564709782600403, -0.0533900186419487, 0.08153562992811203, 0.009211111813783646, 0.015978941693902016, 0.10286475718021393, 0.0037567061372101307, 0.14302471280097961, -0.08075881749391556], [0.0011875381460413337, -0.21030175685882568, -0.008514048531651497, 0.025259487330913544, 0.027816344052553177, -0.05091727152466774, 0.10215028375387192, 0.08406040817499161, 0.03693779185414314, -0.01988057792186737], [0.12150772660970688, -0.08797305822372437, 0.05165034532546997, -0.0480254590511322, 0.0992957204580307, -0.09709670394659042, 0.1018834114074707, 0.041536226868629456, 0.06375027447938919, -0.011206159368157387], [0.010468076914548874, -0.010147561319172382, 0.10776670277118683, 0.05027879402041435, -0.019041286781430244, 0.030587488785386086, 0.05665017291903496, -0.0353899821639061, -0.07917414605617523, -0.10057136416435242], [-0.08868587762117386, -0.02969907969236374, 0.0878729298710823, -0.06013726070523262, 0.0654570460319519, 0.08140403777360916, 0.024269359186291695, -0.004000657703727484, -0.05294327437877655, 0.047690462321043015], [-0.03019704297184944, 0.04708120971918106, 0.03000367432832718, 0.017129413783550262, -0.07909803837537766, 0.07116074115037918, 0.03532743453979492, 0.0027052387595176697, -0.024176068603992462, -0.04830499365925789], [0.06618136912584305, -0.018700160086154938, 0.05755331367254257, -0.02430558204650879, 0.005298644304275513, 0.03327418118715286, 0.08336544781923294, 0.00024990737438201904, 0.04664947837591171, -0.03219011053442955], [-0.0944705531001091, 0.06673003733158112, -0.011324658058583736, -0.05631502345204353, -0.054507043212652206, 0.07235611975193024, 0.01614619418978691, -0.012703981250524521, -0.025262778624892235, -0.05975180119276047], [0.005204379558563232, 0.0026770371478050947, -0.0839601531624794, 0.05741572007536888, 0.016936037689447403, -0.030282676219940186, -0.09307669848203659, -0.06894576549530029, 0.005841451697051525, -0.013986065052449703], [0.022032102569937706, 0.02801109477877617, 0.07268943637609482, -0.06489894539117813, -0.03860247880220413, 0.1347074955701828, 0.023405861109495163, 0.015756167471408844, -0.18322233855724335, -0.048063814640045166], [0.05221286416053772, 0.13096538186073303, 0.0029842860531061888, 0.035171959549188614, -0.08663319796323776, 0.1753319650888443, -0.08435779809951782, -0.002467530081048608, -0.1748184859752655, 0.06723171472549438], [0.14130628108978271, 0.19555850327014923, 0.06059698387980461, 0.04881580173969269, -0.07444549351930618, 0.022957565262913704, -0.09335514903068542, 0.08924280107021332, -0.21548062562942505, 0.0021745150443166494], [0.13252095878124237, 0.18763403594493866, 0.0858120322227478, -0.022389082238078117, -0.053377665579319, 0.10055477917194366, -0.0910784974694252, -0.008080750703811646, -0.1750487983226776, 0.06073201820254326], [0.18986399471759796, 0.12456969916820526, -0.03441294655203819, -0.11846727132797241, -0.051070645451545715, 0.1067698672413826, -0.020706715062260628, -0.09419924765825272, -0.14271992444992065, 0.08686275035142899], [0.125014990568161, 0.15485362708568573, 0.12118533998727798, 0.004962737672030926, -0.17287608981132507, 0.14792394638061523, -0.011569023132324219, -0.02075999416410923, -0.10859166085720062, 0.06631707400083542], [0.21641066670417786, 0.12109432369470596, -0.020994758233428, 0.02306259423494339, -0.1764029562473297, 0.10744082182645798, -0.08065099269151688, -0.06674300879240036, -0.07895085215568542, 0.1341104954481125], [0.20994406938552856, 0.15179474651813507, 0.05757248401641846, -0.05124310404062271, -0.07848959416151047, 0.1427321881055832, 0.017468944191932678, -0.060246389359235764, -0.05222424492239952, 0.09810688346624374], [0.14046788215637207, 0.08934535086154938, 0.018125971779227257, -0.07836497575044632, -0.1418371945619583, 0.12911462783813477, -0.07938086241483688, -0.01240111980587244, -0.1624900847673416, 0.06958022713661194], [0.1503184586763382, 0.18242450058460236, 0.05708989500999451, -0.044509049504995346, -0.10471034049987793, 0.09449492394924164, -0.051868338137865067, -0.08657098561525345, -0.09812913089990616, -0.0017837625928223133], [0.05555848777294159, 0.15794089436531067, 0.06286851316690445, 0.060063064098358154, -0.01732880435883999, 0.12411480396986008, -0.04386525973677635, -0.08237545937299728, -0.09276159107685089, 0.049069151282310486], [0.14373329281806946, 0.1553315967321396, 0.033772364258766174, 0.005131865851581097, -0.09306409955024719, 0.11541243642568588, -0.06494661420583725, -0.14494441449642181, -0.05292920395731926, 0.07838287204504013], [0.15220367908477783, 0.13750949501991272, 0.025086715817451477, 0.10420995205640793, -0.09646379947662354, 0.20322827994823456, -0.009738130494952202, -0.11676102131605148, 0.059945981949567795, 0.14065688848495483], [0.12281983345746994, 0.13519561290740967, 0.06903089582920074, 0.10325456410646439, -0.04134683310985565, 0.13365885615348816, 0.007482748478651047, -0.13898873329162598, 0.09869378060102463, 0.023898838087916374], [0.0515931099653244, 0.18562598526477814, 0.07815840095281601, 0.11213380098342896, -0.05227439105510712, 0.043289218097925186, 0.00851663388311863, -0.09715732932090759, 0.1302645206451416, 0.02630467712879181], [0.05075688660144806, 0.037819426506757736, 0.06160037964582443, 0.08730845153331757, -0.06740014255046844, 0.1144196093082428, 0.053683891892433167, -0.06717346608638763, 0.21614722907543182, 0.07173487544059753], [0.026979541406035423, 0.001586451195180416, 0.015121459029614925, 0.03697584569454193, -0.042014043778181076, 0.08451647311449051, -0.05004941299557686, -0.10472559183835983, 0.09624408930540085, 0.05380678176879883], [-0.05435695871710777, -0.01222304254770279, 0.09293254464864731, 0.1803715080022812, -0.10985665768384933, 0.07713265717029572, 0.007904687896370888, -0.006990871392190456, 0.10948166996240616, 0.008142292499542236], [-0.0006611382705159485, 0.012854634784162045, 0.021315546706318855, 0.08110933005809784, -0.11750529706478119, 0.019849369302392006, 0.10027829557657242, -0.03908093273639679, 0.11049607396125793, -0.05779888108372688], [0.05627637729048729, -0.18615198135375977, 0.1116575300693512, 0.19618616998195648, 0.02800149656832218, 0.028210170567035675, 0.052503231912851334, -0.04878314211964607, 0.22194577753543854, -0.11194898933172226], [0.11322790384292603, -0.21395941078662872, 0.22811025381088257, 0.09185545891523361, 0.053113903850317, -0.007106670644134283, 0.17416377365589142, 0.0078000351786613464, 0.16338832676410675, -0.052596595138311386], [0.1397904008626938, -0.11892511695623398, 0.12475421279668808, 0.1426202356815338, 0.16336768865585327, -0.06711149215698242, 0.10383763164281845, -0.07153528183698654, 0.1221468448638916, -0.1583591103553772], [-0.042284611612558365, 0.014748076908290386, 0.12383348494768143, -0.0343870185315609, 0.07923208922147751, -0.05142998322844505, 0.10704108327627182, -0.05407305061817169, 0.09278037399053574, -0.11249084770679474], [0.04461022838950157, 0.03454931080341339, -0.004888555034995079, 0.02159370668232441, 0.014093774370849133, 0.013697782531380653, 0.04595464468002319, -0.07824163138866425, 0.05814783647656441, -0.06758943200111389], [0.06528238207101822, 0.04073258489370346, 0.08445320278406143, -0.05139738321304321, 0.05035755783319473, -0.027733109891414642, -0.03255871683359146, -0.05281774699687958, -0.009401261806488037, -0.01602870225906372], [0.09275539219379425, 0.013220086693763733, -0.038578569889068604, -0.0457192100584507, 0.026092983782291412, 0.08210913836956024, 0.05567288398742676, 0.05660580098628998, -0.055871929973363876, 0.056343887001276016], [0.038686756044626236, -0.027496038004755974, -0.0805487409234047, 0.04418564587831497, 0.05849360674619675, -0.0030898272525519133, 0.007740052882581949, 0.08521265536546707, 0.03481464087963104, 0.049712181091308594], [0.05622895434498787, 0.16211439669132233, -0.057391293346881866, 0.001971811754629016, 0.06395238637924194, 0.010374202392995358, 0.03196050226688385, -0.08936464786529541, -0.042115822434425354, -0.06305708736181259], [0.17254696786403656, 0.20514829456806183, -0.049573976546525955, 0.11852725595235825, -0.0034992850851267576, 0.035494301468133926, -0.10201852023601532, 0.07019723206758499, -0.1284523755311966, -0.0215737484395504], [0.11495940387248993, 0.17225903272628784, 0.030647216364741325, 0.030247502028942108, 0.08030346781015396, 0.07311409711837769, -0.13423922657966614, 0.08345625549554825, -0.08988326787948608, 0.12067979574203491], [0.12779664993286133, 0.1292443871498108, 0.044434018433094025, 0.0012083494802936912, -0.033005502074956894, 0.13145223259925842, 0.0022396689746528864, 0.07490435987710953, -0.19303223490715027, 0.07484946399927139], [0.19366490840911865, 0.16260802745819092, 0.04143746942281723, 0.0537291057407856, -0.06512989103794098, -0.00922544114291668, -0.12793970108032227, -0.0871509239077568, -0.13046973943710327, 0.16351726651191711], [0.22441978752613068, 0.12521757185459137, 0.10836605727672577, 0.012280045077204704, -0.060291361063718796, -0.008887747302651405, -0.044691700488328934, -0.026866957545280457, -0.05528385937213898, 0.13810226321220398], [0.22319668531417847, 0.15749187767505646, 0.17442932724952698, 0.06370319426059723, -0.09522310644388199, -0.0022152704186737537, -0.06900989264249802, -0.006558221764862537, -0.10248937457799911, 0.011036142706871033], [0.22557273507118225, 0.07921482622623444, 0.1575867384672165, 0.0630350112915039, -0.0901205986738205, -0.023246539756655693, 0.023153383284807205, -0.05307978019118309, -0.1649247109889984, -0.037089377641677856], [0.13070641458034515, 0.09175661951303482, 0.11705894023180008, -0.005477184895426035, 0.013235694728791714, 0.09321171045303345, 0.06627484411001205, -0.046291645616292953, -0.13887611031532288, 0.09337163716554642], [0.06592708081007004, 0.0014002341777086258, -0.013945084065198898, -0.0825803354382515, 0.013002738356590271, 0.03795025497674942, -0.004990722518414259, -0.0020361077040433884, -0.024040356278419495, -0.08329781889915466], [0.15513421595096588, -0.002694556722417474, 0.030236070975661278, -0.03830757364630699, -0.019819097593426704, 0.03784138709306717, -0.0731920450925827, 0.023711947724223137, -0.02869703620672226, 0.02806076966226101], [0.15517818927764893, -0.021090364083647728, 0.007475977763533592, -0.06994259357452393, 0.028048846870660782, 0.06107567995786667, -0.05271236225962639, 0.03539806231856346, -0.10873834043741226, -0.08078056573867798], [0.18991313874721527, 0.033578772097826004, 0.047422848641872406, -0.08326108753681183, 0.14840447902679443, 0.16798394918441772, 0.06568213552236557, -0.009427222423255444, -0.02134968526661396, -0.04996951296925545], [0.2511458098888397, -0.02883562445640564, -0.0049622319638729095, 0.03800850734114647, 0.10408860445022583, 0.15326189994812012, 0.06495749205350876, -0.004784760996699333, -0.09228841215372086, 0.09654898196458817], [0.08249463140964508, 0.08268673717975616, 0.14931775629520416, -0.02564040571451187, 0.04793422296643257, 0.04695362597703934, 0.05042038485407829, 0.0648336187005043, 0.06868289411067963, 0.029694311320781708], [0.11327387392520905, 0.0654541626572609, 0.1545722335577011, 0.01026801485568285, 0.005611978005617857, 0.03388044238090515, -0.021522806957364082, -0.05168619379401207, 0.07203097641468048, 0.09925733506679535], [0.013173669576644897, 0.12487230449914932, 0.12301678210496902, 0.10601542890071869, -0.0312120970338583, 0.13844603300094604, 0.10805261135101318, -0.07616402953863144, 0.03684646263718605, 0.09266550093889236], [-0.03154730796813965, 0.07445836067199707, 0.1494009643793106, 0.1723938286304474, 0.004913576878607273, 0.03516349568963051, 0.026233142241835594, 0.027320656925439835, 0.06586183607578278, -0.005187144502997398], [-0.01963566057384014, 0.07740317285060883, 0.16487514972686768, 0.11652158945798874, -0.017821352928876877, 0.021590732038021088, -0.03895815461874008, -0.09904783964157104, 0.13871470093727112, -0.018635036423802376], [0.02701464667916298, 0.006005562376230955, 0.18151694536209106, 0.2429010272026062, -0.034878481179475784, 0.02252943255007267, 0.09088458120822906, -0.08077818155288696, 0.15574975311756134, -0.0777321308851242], [0.028390102088451385, 0.004652974661439657, 0.15678472816944122, 0.09774106740951538, -0.061714790761470795, -0.011716671288013458, 0.15621592104434967, -0.041029755026102066, 0.056912731379270554, -0.12737655639648438], [0.15410216152668, -0.15181396901607513, 0.18524105846881866, 0.18678301572799683, -0.0011399360373616219, -0.04181547462940216, 0.24841736257076263, -0.15316519141197205, 0.10673153400421143, -0.2175975739955902], [0.13721469044685364, -0.02773241698741913, 0.19453881680965424, 0.0681513100862503, 0.07256843149662018, 0.029072944074869156, 0.26168638467788696, -0.14351841807365417, 0.00030157630681060255, -0.1458325982093811], [0.058014046400785446, 0.025782739743590355, 0.15493939816951752, -0.0570557676255703, 0.10109388083219528, -0.003746182657778263, 0.20719128847122192, 0.027572598308324814, -0.06600962579250336, -0.07989291846752167], [0.035854823887348175, 0.07701898366212845, 0.056228671222925186, -0.048605646938085556, -0.06291782855987549, 0.04313557222485542, -0.009435473009943962, -0.059522464871406555, 0.02714184857904911, 0.010601671412587166], [0.00666768429800868, -0.010432724840939045, -0.03373530134558678, 0.07565891742706299, 0.05376815423369408, -0.036600906401872635, -0.035101521760225296, 0.040918219834566116, -0.057495757937431335, 0.09127749502658844], [0.0032344518695026636, 0.06344159692525864, 0.010132858529686928, -0.024410998448729515, 0.05045001953840256, -0.022727247327566147, -0.06252951920032501, -0.009731370024383068, 0.05103032663464546, 0.01208504755049944], [-0.12262554466724396, -0.03142319619655609, -0.15460510551929474, 0.04939849302172661, 0.057512663304805756, -0.04028220474720001, -0.034267060458660126, -0.03452078998088837, 0.09290195256471634, 0.14716844260692596], [0.044919323176145554, 0.18031708896160126, -0.1013779565691948, 0.022574804723262787, -0.03480490669608116, -0.04134227707982063, -0.17943696677684784, 0.0656651183962822, -0.09374073147773743, 0.14139410853385925], [0.08473829925060272, 0.14746522903442383, -0.07697170227766037, -8.743085345486179e-05, -0.023576438426971436, 0.11314834654331207, -0.1072014719247818, -0.03363027423620224, -0.11984225362539291, 0.04610668867826462], [0.14521293342113495, 0.1933871954679489, 0.024773286655545235, 0.09169284999370575, 0.04093855991959572, 0.030567072331905365, -0.10333558917045593, 0.018704405054450035, -0.1576632857322693, 0.10621930658817291], [0.13657920062541962, 0.12210569530725479, 0.015331659466028214, 0.1341157704591751, 0.030307358130812645, 0.07178118824958801, -0.10729727894067764, 0.050470657646656036, -0.08290842175483704, 0.1132286787033081], [0.12711545825004578, 0.1258184015750885, -0.058115385472774506, -0.015271862968802452, -0.045159198343753815, 0.03717873618006706, 0.018415745347738266, -0.03460210561752319, -0.07084564864635468, 0.07465649396181107], [0.19099591672420502, 0.13841627538204193, 0.05067293718457222, -0.02576771192252636, -0.08117466419935226, -0.026469798758625984, -0.032364677637815475, -0.007009326014667749, -0.02226216532289982, 0.03995341435074806], [0.20810911059379578, 0.1662875860929489, 0.046168480068445206, -0.011758862063288689, 0.019529901444911957, -0.03334943950176239, 0.07109463214874268, 0.030556540936231613, 0.053113073110580444, 0.13702233135700226], [0.0811963900923729, 0.1282455176115036, 0.015561087056994438, 0.05262146517634392, -0.05370235815644264, -0.046220604330301285, -0.0045307050459086895, -0.05138295143842697, 0.1031658872961998, 0.09378701448440552], [0.19019663333892822, 0.07199150323867798, -0.018677886575460434, -0.008687029592692852, 0.005946580320596695, -0.061617352068424225, -0.04670010134577751, -0.061090536415576935, 0.051491137593984604, -0.03765679895877838], [0.1671784371137619, 0.04937788099050522, -0.08331850171089172, -0.02105020172894001, 0.08185437321662903, 0.05263179540634155, 0.03658294305205345, 0.06885583698749542, 0.1470998227596283, -0.08733867108821869], [0.1724780797958374, 0.001967004034668207, -0.004791043698787689, -0.008500470779836178, 0.09609202295541763, 0.11007984727621078, -0.09229409694671631, 0.10404246300458908, 0.16350039839744568, -0.06856819987297058], [0.23889780044555664, -0.17205704748630524, -0.04392080008983612, -0.07247188687324524, 0.14268285036087036, 0.10464848577976227, -0.05889533460140228, 0.14555148780345917, 0.02413414791226387, -0.025372689589858055], [0.10113877803087234, -0.17974795401096344, 0.032315775752067566, -0.12166314572095871, 0.14791612327098846, -0.04111555963754654, -0.07953187078237534, 0.16837885975837708, 0.10097133368253708, -0.07226383686065674], [0.2072627991437912, -0.031965095549821854, 0.0430811308324337, -0.029524778947234154, 0.224378302693367, 0.10656289011240005, -0.010364118032157421, 0.08615001291036606, 0.0116959847509861, -0.005580250173807144], [0.1718379408121109, -0.05491437017917633, 0.0030035139061510563, -0.014797770418226719, 0.20652349293231964, 0.021948961541056633, -0.08289354294538498, 0.014627561904489994, 0.07954879105091095, -0.018233831971883774], [0.14724788069725037, 0.1180623471736908, 0.028269963338971138, 0.0462641716003418, 0.02113339677453041, 0.03267331421375275, 0.02134636603295803, 0.01349266804754734, -0.016707245260477066, 0.04260783642530441], [0.1262424886226654, 0.08744335174560547, 0.1051105260848999, 0.03311176598072052, -0.004751908592879772, 0.09016918390989304, -0.003978777211159468, 0.030254265293478966, 0.08234070986509323, -0.021482883021235466], [-0.0013930322602391243, 0.14916661381721497, 0.16165412962436676, 0.09322337806224823, 0.024796074256300926, 0.05665340647101402, 0.009039424359798431, -0.02076403796672821, 0.03237038850784302, -0.027963994070887566], [0.11322622746229172, 0.05943874642252922, 0.08632149547338486, 0.05602649599313736, -0.04360794648528099, 0.12318596243858337, 0.0912456288933754, -0.1082349568605423, 0.08779028058052063, -0.055578459054231644], [0.035107191652059555, 0.1167852059006691, 0.1451917588710785, 0.08711300790309906, -0.058383308351039886, 0.1166592687368393, 0.1026679128408432, -0.04375601187348366, 0.097856804728508, -0.0577394925057888], [0.027745334431529045, 0.026902716606855392, 0.2126130312681198, 0.12173739075660706, 0.06509993225336075, 0.06388656049966812, 0.1679401993751526, -0.16036678850650787, 0.17603208124637604, -0.12538984417915344], [0.040139757096767426, -0.15899132192134857, 0.2894366383552551, 0.001961654517799616, 0.13813133537769318, 0.09709963202476501, 0.30407705903053284, -0.1156797781586647, 0.0017079748213291168, -0.17046886682510376], [0.09601074457168579, -0.07867420464754105, 0.13107752799987793, 0.020002957433462143, 0.15461690723896027, -0.013787363655865192, 0.1847899854183197, -0.06334736943244934, -0.039843522012233734, -0.22285430133342743], [0.15744008123874664, 0.01880953088402748, 0.05009126663208008, -0.046797581017017365, 0.10725722461938858, 0.07019129395484924, 0.2208704948425293, -0.12073124945163727, 0.013989861123263836, -0.21024250984191895], [-0.06267698854207993, -0.05035796016454697, 0.10546422004699707, -0.009973869659006596, 0.07739505916833878, -0.018792808055877686, 0.132831409573555, 0.017455676570534706, 0.0461759939789772, -0.018423419445753098], [0.03839407116174698, -0.036237504333257675, -0.07099640369415283, -0.06988108158111572, -0.023563679307699203, 0.06664489954710007, -0.020848723128437996, 0.08340422809123993, 0.040200863033533096, 0.016045166179537773], [0.029104799032211304, 0.03411002457141876, -0.04248102009296417, 0.06509865820407867, 0.060498420149087906, -0.0759023129940033, -0.1551806628704071, -0.0616888627409935, 0.06097431108355522, 0.06677165627479553], [-0.026213388890028, -0.04807882755994797, -0.14043888449668884, 0.052629683166742325, 0.03013228252530098, -0.11703968793153763, -0.14268583059310913, -0.01645364798605442, 0.09126318246126175, 0.2186025232076645], [0.028043735772371292, 0.08352988213300705, -0.06923621147871017, 0.003923952579498291, -0.06490205228328705, -0.1164323166012764, -0.062236327677965164, -0.06624405086040497, 0.07547221332788467, 0.1561034470796585], [0.08320199698209763, 0.12048368155956268, -0.03533732518553734, 0.04949426278471947, 0.0727592408657074, -0.02167629823088646, -0.05224571004509926, 0.05120468884706497, -0.11544191837310791, 0.09103494882583618], [0.060967203229665756, 0.19458545744419098, -0.005278123077005148, 0.09246966987848282, -0.0096326544880867, -0.02983153983950615, -0.0035452432930469513, -0.07967247068881989, -0.11708539724349976, 0.11874546855688095], [0.16997365653514862, 0.1490439921617508, 7.13153276592493e-05, 0.1107318177819252, 0.016556087881326675, -0.017245586961507797, 0.052153974771499634, -0.11216257512569427, 0.01593959331512451, 0.1398703157901764], [0.05550381913781166, 0.0401984378695488, 0.01772351749241352, 0.08254535496234894, -0.08374998718500137, -0.07765331119298935, -0.004157575778663158, 0.015533936209976673, 0.032292939722537994, 0.19197207689285278], [0.07423798739910126, 0.12523746490478516, -0.02779991365969181, 0.08069118112325668, -0.10508187115192413, -0.006795685738325119, 0.08074180781841278, -0.09579044580459595, 0.1517549455165863, 0.07174506038427353], [0.017267227172851562, 0.0029758240561932325, 0.0655503198504448, 0.07320281863212585, -0.03259201720356941, -0.03430463373661041, 0.0015052036615088582, 0.0321320965886116, 0.0731736421585083, 0.04975488409399986], [0.12246696650981903, 0.12288036942481995, 0.07010917365550995, -0.01658412255346775, -0.015072767622768879, -0.138639897108078, 0.04055050015449524, 0.017090190201997757, 0.06986834108829498, 0.060227926820516586], [0.08332302421331406, 0.04352235421538353, 0.04103786125779152, 0.06776507943868637, 0.10707853734493256, -0.0621187649667263, 0.05930740013718605, 0.06031626835465431, 0.15022167563438416, 0.10632353276014328], [0.02501939982175827, -0.049289971590042114, 0.0009348505409434438, 0.0590946227312088, 0.13418550789356232, -0.05245186388492584, 0.04174933582544327, -0.09524018317461014, 0.14696826040744781, -0.07136993855237961], [-0.0030477778054773808, -0.09568944573402405, -0.1669633388519287, 0.08997391909360886, 0.14244547486305237, -0.028196047991514206, -0.10863510519266129, 0.025688957422971725, 0.19743679463863373, -0.04459766298532486], [0.17765220999717712, -0.037865880876779556, -0.1861114650964737, 0.0002667366061359644, 0.13577936589717865, 0.056594353169202805, -0.06239532679319382, -0.013581898994743824, 0.12800803780555725, 0.007117177825421095], [0.11926169693470001, -0.12673979997634888, -0.14487384259700775, 0.06646817177534103, 0.08722994476556778, 0.023541094735264778, -0.055745746940374374, -0.030369754880666733, 0.027360331267118454, 0.035655636340379715], [0.17640623450279236, -0.0017634490504860878, -0.038834717124700546, 0.013200104236602783, 0.2110990285873413, -0.06620382517576218, -0.0476837083697319, 0.013922538608312607, 0.025140386074781418, 0.03893648833036423], [0.16912797093391418, 0.12134707719087601, -0.05860225483775139, 0.13486267626285553, 0.10209671407938004, -0.026285463944077492, -0.14508862793445587, 0.05555126070976257, -0.004519325215369463, -0.045808810740709305], [-0.0038649775087833405, 0.04501480609178543, 0.044656217098236084, 0.14826561510562897, 0.15326902270317078, 0.06682410836219788, 0.022308168932795525, 0.04275178536772728, -0.02832147851586342, 0.008612950332462788], [0.1508815884590149, 0.1479555070400238, 0.11965974420309067, 0.120021291077137, 0.03805416077375412, 0.08939027786254883, -0.0537942498922348, 0.01998874731361866, 0.024006491526961327, 0.0928126722574234], [0.1360422670841217, 0.13040706515312195, 0.16153572499752045, 0.12162650376558304, 0.09685179591178894, 0.09322522580623627, -0.016517452895641327, 0.02681078016757965, 0.06491854041814804, 0.08805631101131439], [0.1246788501739502, 0.06742513179779053, 0.07630233466625214, 0.044298265129327774, 0.05477447062730789, 0.11486106365919113, 0.13525865972042084, -0.08817920833826065, 0.09285752475261688, 0.028062444180250168], [0.1385764181613922, 0.06068814918398857, 0.25365787744522095, 0.15505245327949524, -0.05227414146065712, 0.05430561676621437, 0.11520954966545105, -0.1497119814157486, -0.013160999864339828, -0.04251515120267868], [0.04680583253502846, -0.010623269714415073, 0.1985129714012146, 0.11271808296442032, -0.008430871181190014, -0.05904379114508629, 0.3109551668167114, -0.1313353031873703, 0.13163918256759644, -0.2908379137516022], [0.10806431621313095, -0.1520346850156784, 0.32013702392578125, -0.07207346707582474, 0.11092952638864517, -0.008791299536824226, 0.29957908391952515, -0.2164316475391388, 0.10663998872041702, -0.20246818661689758], [0.10136012732982635, -0.011058553121984005, 0.2440241426229477, -0.02251601032912731, 0.0984048992395401, 0.0716843456029892, 0.2152509093284607, -0.21964600682258606, -0.07754860818386078, -0.20970584452152252], [0.03929590433835983, -0.019261036068201065, 0.06944172084331512, -0.13932763040065765, 0.1632830798625946, -0.0013544651446864009, 0.23203632235527039, -0.1262665092945099, -0.11064048111438751, -0.16865083575248718], [-0.004309794865548611, 0.03521719202399254, 0.08647876977920532, -0.015388806350529194, 0.04855504631996155, 0.11027096956968307, 0.0720403715968132, -0.07270167022943497, -0.02028205431997776, -0.07048531621694565], [0.024684768170118332, 0.054322272539138794, -0.03855927288532257, -0.03131917491555214, -0.048209309577941895, -0.058327171951532364, -0.0487884096801281, 0.06606230139732361, -0.02282096818089485, -0.03666882589459419], [-0.10950922220945358, 0.004442170727998018, -0.10232897102832794, 0.04568943381309509, -0.015589584596455097, -0.09895824640989304, -0.09089194238185883, 0.05619244650006294, 0.15379859507083893, 0.038832008838653564], [-0.03355736285448074, 0.03220123052597046, -0.08781580626964569, 0.15582077205181122, 0.013650973327457905, -0.1305248737335205, -0.21640512347221375, -0.04780172184109688, 0.19080621004104614, 0.10641427338123322], [0.03832264244556427, -0.022794585675001144, -0.12407320737838745, 0.11747779697179794, 0.016536017879843712, -0.09154696017503738, -0.17103560268878937, -0.11627699434757233, -0.007586054038256407, 0.23478969931602478], [-0.003814150346443057, 0.06814778596162796, -0.09269982576370239, 0.1415768265724182, 0.00877397134900093, -0.03415735438466072, -0.17365999519824982, -0.029789919033646584, -0.03131144866347313, 0.15542083978652954], [0.03375689312815666, 0.02652548812329769, 0.03660242259502411, -0.027590328827500343, 0.010618975386023521, 0.006103731691837311, -0.11276798695325851, -0.0018290369771420956, -0.0746089294552803, 0.1936679482460022], [0.05296468734741211, 0.1017073318362236, 0.0758698508143425, 0.019835565239191055, -0.10988089442253113, 0.04927297309041023, 0.06643374264240265, -0.0004913687007501721, 0.08116032183170319, 0.1699257493019104], [-0.01730283722281456, 0.026589922606945038, 0.10333923250436783, -0.03391022980213165, -0.14764568209648132, -0.004937344696372747, 0.004357634112238884, -0.032412827014923096, 0.12187188118696213, 0.025338497012853622], [0.02659646049141884, 0.004905179608613253, 0.08807681500911713, 0.10275057703256607, -0.07739358395338058, -0.14764553308486938, 0.16601449251174927, -0.10008297115564346, 0.18398630619049072, 0.047611746937036514], [-0.008388865739107132, -0.003227964509278536, 0.1377350091934204, 0.019255856052041054, -0.07277993857860565, -0.09730764478445053, 0.041615333408117294, 0.028187507763504982, 0.14522285759449005, 0.14413632452487946], [0.023867154493927956, -0.10869624465703964, 0.04391433298587799, 0.04107721522450447, -0.023820795118808746, 0.002515164902433753, 0.1366378217935562, -0.017573010176420212, 0.18477760255336761, 0.06194842606782913], [0.04069004952907562, -0.08309114724397659, -0.014191965572535992, 0.11290000379085541, 0.0785999447107315, -0.06762207299470901, 0.06767026335000992, -0.0007324623875319958, 0.25211983919143677, -0.017236704006791115], [0.0025955126620829105, 0.045776087790727615, -0.06437882035970688, 0.04054001718759537, 0.05871536210179329, 0.03753494843840599, 0.047199297696352005, 0.04589563608169556, 0.21222752332687378, 0.04229595139622688], [-0.03890540823340416, -0.04459233954548836, -0.055549900978803635, 0.036106426268815994, 0.07508990913629532, -0.04412291198968887, -0.003813154296949506, 0.0036101536825299263, 0.17034806311130524, -0.08162876963615417], [-0.028376078233122826, -0.11424419283866882, -0.15227952599525452, 0.08952022343873978, 0.09374794363975525, 0.08581618964672089, -0.11221740394830704, -0.023785622790455818, 0.13838379085063934, -0.04269524663686752], [0.13798369467258453, -0.052774880081415176, -0.18895336985588074, 0.11624592542648315, 0.0651194155216217, 0.05255725234746933, -0.19167231023311615, 0.008275973610579967, 0.04929923638701439, 0.0979689210653305], [0.11515309661626816, 0.10966101288795471, -0.04610922932624817, 0.15661360323429108, 0.14270250499248505, -0.08183762431144714, -0.1147201731801033, -0.006971991155296564, 0.033808186650276184, 0.17511053383350372], [0.19427381455898285, 0.1054723858833313, -0.05942660942673683, 0.14659886062145233, 0.14002948999404907, 0.03563324362039566, -0.1539776623249054, 0.11400531232357025, -0.04624918848276138, 0.14667682349681854], [0.1656477004289627, 0.12711352109909058, 0.0716124102473259, 0.17874595522880554, 0.1131373792886734, 0.02343956008553505, -0.05923442915081978, -0.006879263091832399, -0.027971886098384857, 0.07320847362279892], [0.04816417023539543, 0.22432157397270203, 0.03761438652873039, 0.11279578506946564, 0.07160940766334534, -0.028402065858244896, 0.029095523059368134, 0.04211486503481865, -0.07632972300052643, 0.04301254823803902], [0.10877059400081635, 0.1585247814655304, 0.06826107203960419, 0.1444838047027588, 0.04637180641293526, 0.03720253333449364, 0.1145138144493103, 0.00955099705606699, 0.028652865439653397, 0.025381069630384445], [0.15070654451847076, -0.00028608739376068115, 0.13284024596214294, 0.16862842440605164, 0.05178992822766304, 0.06998441368341446, 0.053766801953315735, -0.03597854822874069, 0.011756750755012035, -0.019280515611171722], [0.15202808380126953, 0.08761787414550781, 0.20786522328853607, 0.11740767955780029, -0.0337664932012558, 0.016550909727811813, 0.1658715307712555, -0.10918150842189789, 0.08719469606876373, -0.07254096865653992], [0.18446296453475952, 0.01654910482466221, 0.12140900641679764, -0.02631639689207077, 0.039295170456171036, -0.07294346392154694, 0.1785634458065033, -0.12787342071533203, 0.07652347534894943, -0.19262631237506866], [0.09235518425703049, -0.09586328268051147, 0.1779785454273224, -0.01184970885515213, 0.11306670308113098, 0.07055598497390747, 0.2724958658218384, -0.2173902988433838, -0.008332747034728527, -0.32338404655456543], [0.10075349360704422, -0.020174304023385048, 0.3363858461380005, -0.1417306363582611, 0.1278240829706192, -0.0005532774375751615, 0.23447951674461365, -0.13875839114189148, -0.02577228657901287, -0.2164154052734375], [0.07984457910060883, 0.055436063557863235, 0.08048156648874283, -0.14990465342998505, 0.044828832149505615, 0.05025508627295494, 0.26180413365364075, -0.04169371351599693, -0.1701948493719101, -0.23748202621936798], [0.00233656307682395, 0.025207238271832466, 0.12799902260303497, -0.0824454054236412, -0.06346827000379562, 0.03669045865535736, 0.11245567351579666, -0.07809794694185257, 0.0294073224067688, -0.13806618750095367], [-0.028936590999364853, -0.035306233912706375, -0.0030817044898867607, -0.06509822607040405, 0.04301019012928009, -0.009949946776032448, 0.0546952523291111, -0.09271705895662308, -0.015113044530153275, -0.045255985110998154], [-0.12477398663759232, -0.004368295427411795, -0.08137034624814987, 0.15316016972064972, -0.04606745392084122, -0.1786341667175293, -0.026843374595046043, 0.04286337271332741, 0.1510959267616272, 0.03151484206318855], [-0.05685054883360863, 0.02761310338973999, -0.14407801628112793, 0.12635968625545502, -0.022137150168418884, -0.2051425725221634, -0.24309483170509338, -0.1233975738286972, 0.23015040159225464, 0.1992628425359726], [0.017011066898703575, 0.05258624255657196, -0.2077084481716156, 0.17650893330574036, -0.08656998723745346, -0.08722434192895889, -0.21546979248523712, -0.0693083330988884, 0.07816718518733978, 0.15455490350723267], [-0.13416694104671478, 0.13953840732574463, -0.09483471512794495, 0.001777425641193986, -0.021721191704273224, -0.07419602572917938, -0.102292999625206, -0.156472310423851, -0.0011878132354468107, 0.06842212378978729], [-0.11688969284296036, 0.07383085042238235, 0.05081064626574516, 0.06320973485708237, -0.08692175894975662, -0.036466099321842194, -0.03838251531124115, 0.013044051826000214, 0.09603508561849594, 0.002527065109461546], [-0.140189990401268, 0.033227965235710144, -0.025707993656396866, 0.016641031950712204, -0.09619823843240738, -0.05027996376156807, 0.02948826365172863, 0.023644492030143738, 0.1350957751274109, -0.04133544862270355], [-0.14128684997558594, -0.0980817973613739, 0.024387210607528687, -0.04470435529947281, -0.08872104436159134, -0.03466787189245224, 0.15992289781570435, 0.03400344401597977, 0.15003596246242523, -0.05925137922167778], [-0.02308753877878189, -0.05446324869990349, 0.1738419383764267, 0.043202441185712814, -0.025273602455854416, -0.02296624146401882, 0.22028882801532745, -0.04220910370349884, 0.14429251849651337, 0.06316761672496796], [-0.07619301974773407, -0.020220549777150154, 0.06497859209775925, 0.05697600916028023, -0.008483394980430603, -0.06975183635950089, 0.2080167829990387, -0.014480970799922943, 0.22073785960674286, 0.0871867761015892], [-0.06526874005794525, -0.0061315810307860374, 0.08456254005432129, 0.030012331902980804, -0.019546398892998695, -0.12713377177715302, 0.17240217328071594, 0.02305733971297741, 0.2650381326675415, -0.04243838042020798], [-0.012579902075231075, -0.06302554160356522, 0.1517808586359024, 0.02608870342373848, -0.06514613330364227, -0.014418860897421837, 0.22871319949626923, 0.0809948667883873, 0.18430450558662415, -0.041954830288887024], [0.05349118262529373, -0.14780652523040771, 0.11524856090545654, 0.10154516249895096, 0.07399807125329971, -0.03684158995747566, 0.061529260128736496, -0.004045047797262669, 0.1608167141675949, -0.05042920261621475], [0.03312743082642555, -0.03547961264848709, -0.04592214524745941, 0.08953395485877991, 0.07882743328809738, -0.022744648158550262, 0.005207080394029617, -0.06943504512310028, 0.1863168329000473, -0.11741166561841965], [0.0270217377692461, -0.026487227529287338, -0.05302487313747406, 0.15445475280284882, 0.11977721750736237, 0.18007858097553253, -0.1381911188364029, -0.13343264162540436, 0.0849786326289177, -0.09768473356962204], [0.016574397683143616, 0.08767423033714294, -0.08697322756052017, 0.06079644337296486, 0.07678095251321793, 0.07038433104753494, -0.11012294143438339, -0.06927911937236786, 0.021126722916960716, 0.01616736128926277], [0.12207375466823578, 0.14707553386688232, 0.01110858004540205, 0.18060803413391113, 0.02088598720729351, -0.0693451389670372, -0.24456007778644562, 0.016895979642868042, 0.016236884519457817, 0.20857033133506775], [0.09857440739870071, 0.24846741557121277, -0.014222715049982071, 0.23579531908035278, 0.053784750401973724, 0.0364697203040123, -0.07635078579187393, 0.13653402030467987, -0.01530398428440094, 0.13729561865329742], [0.14308620989322662, 0.09285705536603928, 0.05325871333479881, 0.1672593206167221, 0.10256030410528183, 0.03169701620936394, -0.08679715543985367, 0.09548815339803696, -0.017408058047294617, 0.2664007544517517], [0.15441381931304932, 0.07425160706043243, 0.04783377796411514, 0.11572400480508804, 0.04617661237716675, 0.04562537372112274, -0.06334979087114334, 0.09745454043149948, -0.009678018279373646, 0.24667346477508545], [0.1321542114019394, 0.156317800283432, 0.09741128981113434, 0.12279161065816879, -0.026601601392030716, 0.03733859956264496, -0.05367076024413109, 0.11544103920459747, -0.014726956374943256, 0.1408461332321167], [0.12398049980401993, 0.03862583637237549, 0.11721444875001907, 0.11665326356887817, 0.02922634407877922, -0.06295675039291382, 0.07944193482398987, 0.0001445837551727891, 0.031338490545749664, 0.1740867644548416], [0.05952320620417595, 0.09587475657463074, 0.0006851591169834137, 0.1339280903339386, -0.03861314058303833, -0.02363765425980091, 0.16119861602783203, -0.028884736821055412, 0.001784627791494131, 0.08388609439134598], [0.13699312508106232, 0.11730103939771652, 0.1416078358888626, 0.007474604528397322, 0.15005064010620117, -0.05513580143451691, 0.15643684566020966, -0.1615488976240158, 0.028526591137051582, -0.14610253274440765], [0.16470451653003693, 0.06835445016622543, 0.2040940374135971, 0.02754906751215458, 0.1115245521068573, 0.06673232465982437, 0.20529215037822723, -0.1929038166999817, -0.10085095465183258, -0.28654950857162476], [-0.05009318143129349, 0.052864693105220795, 0.25676923990249634, -0.14379701018333435, 0.10219807922840118, -0.00044023338705301285, 0.18896888196468353, -0.12125515937805176, -0.09524686634540558, -0.31819644570350647], [0.005971976555883884, 0.07119714468717575, 0.09450457990169525, -0.025491243228316307, 0.14149104058742523, 0.10321736335754395, 0.19323094189167023, -0.10787065327167511, -0.055516842752695084, -0.12440783530473709], [-0.10438118875026703, 0.054897159337997437, -0.03423803299665451, -0.056316208094358444, -0.022731635719537735, -0.011186438612639904, 0.05055098608136177, 0.01900605484843254, -0.10386529564857483, -0.07169321179389954], [-0.031063569709658623, 0.02650701254606247, -0.03232144936919212, -0.01124904491007328, -0.044555217027664185, 0.03983958438038826, -0.04387058690190315, 0.05803248658776283, 0.08011946082115173, 0.013524009846150875], [-0.002563085639849305, 0.02372759021818638, -0.13820780813694, 0.11297192424535751, 0.058446116745471954, -0.0790080800652504, -0.016552908346056938, -0.09212136268615723, 0.09984782338142395, 0.16246943175792694], [-0.08295459300279617, -0.04570509120821953, -0.07870838791131973, 0.1970098614692688, 0.019151533022522926, -0.16533687710762024, -0.17829179763793945, -0.03841071575880051, 0.20359471440315247, 0.14498113095760345], [-0.03801439702510834, 0.08451469242572784, -0.0570860356092453, 0.18655627965927124, -0.13218916952610016, -0.19669482111930847, -0.11855535954236984, -0.08417357504367828, 0.07187394797801971, 0.24720458686351776], [-0.08174274116754532, -0.02385185845196247, 0.017995677888393402, 0.061999037861824036, -0.15166033804416656, -0.04246954619884491, -0.005792418960481882, -0.13726764917373657, 0.113900326192379, 0.06488184630870819], [-0.1676022857427597, -0.10255789011716843, 0.09549731761217117, 0.0329957976937294, -0.10560879111289978, -0.04300154373049736, 0.062431078404188156, 0.05744408816099167, 0.006586788687855005, 0.07269832491874695], [-0.023665321990847588, -0.1654355823993683, 0.024019451811909676, -0.07124888151884079, -0.13645389676094055, -0.14271768927574158, 0.13928073644638062, 0.08469265699386597, 0.12082356214523315, -0.05581656098365784], [-0.07763384282588959, -0.22282595932483673, 0.07502002269029617, 0.011558630503714085, -0.086172915995121, -0.1644333302974701, 0.12455855309963226, 0.024148523807525635, 0.2736576795578003, -0.1402052938938141], [-0.05000603571534157, -0.12214156985282898, 0.17385873198509216, 0.06350728869438171, 0.030610688030719757, -0.04443616792559624, 0.23189221322536469, 0.04999364912509918, 0.28277528285980225, -0.09597789496183395], [0.0772663801908493, -0.10858223587274551, 0.11390434205532074, 0.05566602200269699, -0.008246798068284988, -0.002846056129783392, 0.19509679079055786, 0.1028539314866066, 0.21880218386650085, -0.12008307129144669], [0.08327551186084747, -0.14074598252773285, 0.22743476927280426, -0.01398037001490593, 0.02123209647834301, -0.059242215007543564, 0.22339746356010437, 0.030803784728050232, 0.1480180025100708, -0.005440762732177973], [0.04264640063047409, -0.06700766086578369, 0.20331861078739166, 0.17759042978286743, -0.05515594780445099, -0.11923452466726303, 0.15382400155067444, -0.017164841294288635, 0.15018805861473083, -0.1215624287724495], [0.10695894807577133, -0.1787625104188919, 0.13188622891902924, 0.11651742458343506, -0.04317248612642288, -0.028362182900309563, 0.25391238927841187, -0.015544763766229153, 0.19591477513313293, -0.15068669617176056], [0.0023175536189228296, -0.16637398302555084, 0.0862262025475502, -0.0444328673183918, 0.12021192163228989, 0.06339586526155472, 0.1399361491203308, -0.06262418627738953, -0.00781357940286398, -0.10280556231737137], [-0.08985456824302673, -0.020395684987306595, -0.03478454053401947, -0.034442123025655746, 0.16423502564430237, 0.13485866785049438, -0.07308004796504974, -0.12693044543266296, -0.12580223381519318, -0.1772499680519104], [-0.1080959141254425, -0.012882736511528492, -0.02422136627137661, -0.11915396898984909, 0.06367780268192291, 0.08217917382717133, -0.21446263790130615, 0.010410106740891933, -0.07589385658502579, 0.02287875860929489], [0.13798333704471588, 0.08427031338214874, 0.08559415489435196, 0.015254918485879898, 0.05449656397104263, 0.004147198051214218, -0.08916261047124863, 0.08402121067047119, -0.08065786957740784, 0.2868896722793579], [0.17851270735263824, 0.07102475315332413, 0.06445000320672989, 0.07414843887090683, 0.06134211644530296, 0.07177123427391052, 0.06452570855617523, 0.09403892606496811, 0.013874821364879608, 0.24100255966186523], [0.029455993324518204, 0.09856148064136505, 0.03746791183948517, 0.12098383158445358, -0.05547131225466728, 0.005980577319860458, -0.06026190519332886, 0.20117300748825073, 0.03634444996714592, 0.28088927268981934], [0.033137306571006775, 0.006167733110487461, 0.008487947285175323, 0.0821579098701477, 0.007137575652450323, 0.08261695504188538, 0.04665764421224594, 0.0653756782412529, -0.008482552133500576, 0.2843702435493469], [0.0187599565833807, -0.05401692911982536, 0.07108473777770996, 0.06711047142744064, 0.03587755188345909, 0.03841090574860573, -0.01461096853017807, 0.05843256413936615, 0.09850236773490906, 0.23522068560123444], [0.04192432016134262, -0.0985194519162178, -0.06340262293815613, 0.06561846286058426, -0.06158292293548584, -0.07275454699993134, 0.0068784449249506, 0.09003619104623795, 0.1187247559428215, 0.213479682803154], [-0.0007426799274981022, -0.09371352195739746, 0.009979529306292534, 0.0297541506588459, -0.05500248074531555, -0.010673081502318382, 0.12507815659046173, 0.02967706508934498, 0.13624216616153717, 0.05129677429795265], [0.14010368287563324, -0.017645852640271187, -0.030330026522278786, -0.026171421632170677, -0.048237964510917664, 0.009131993167102337, 0.09185855835676193, -0.1482602059841156, 0.1169419139623642, -0.1505410373210907], [-0.005992908496409655, 0.02355963923037052, 0.07820548862218857, -0.07840724289417267, 0.034372374415397644, 0.061026718467473984, 0.13960601389408112, -0.08048370480537415, -0.04225654527544975, -0.2712107002735138], [-0.0413772352039814, 0.14938807487487793, 0.14795249700546265, -0.13443182408809662, 0.05900730937719345, 0.024920156225562096, 0.16761866211891174, -0.140968456864357, -0.07621940225362778, -0.19415444135665894], [0.02645794302225113, -0.003306347643956542, 0.08853118121623993, -0.05855169892311096, 0.06964872777462006, 0.06518661230802536, 0.12182790786027908, -0.01453015673905611, -0.1076570376753807, -0.0959184393286705], [-0.0932813212275505, 0.11030180752277374, 0.08996224403381348, 0.017979243770241737, -0.026950325816869736, 0.11442016065120697, -0.03251085430383682, -0.06736969202756882, -0.08274558186531067, 0.02547132782638073], [0.0027214535512030125, 0.026730328798294067, -0.04649405926465988, -0.06648343056440353, -0.08773302286863327, -0.10142168402671814, -0.008382000029087067, -0.022091802209615707, 0.01175222359597683, -0.0484919473528862], [-0.04600987583398819, 0.017910152673721313, -0.050806090235710144, 0.005932844243943691, -0.09080363810062408, -0.022656479850411415, -0.09540408104658127, -0.05466161668300629, 0.10927984118461609, 0.08542508631944656], [-0.06703552603721619, 0.05904509499669075, -0.14199814200401306, 0.09944209456443787, 0.04097277671098709, -0.18745499849319458, -0.07329824566841125, -0.12111746519804001, 0.22192272543907166, 0.2509881556034088], [-0.03504478558897972, -0.004142570309340954, -0.08673273772001266, 0.04269719123840332, -0.024017637595534325, -0.1315959244966507, -0.07946175336837769, 0.006001169793307781, 0.12251487374305725, 0.18589496612548828], [-0.09448448568582535, -0.062185123562812805, 0.0728694349527359, 0.04162237048149109, -0.007507261820137501, -0.06779607385396957, -0.08229262381792068, 0.09190911054611206, 0.1454075574874878, 0.015668360516428947], [-0.019617361947894096, -0.20357967913150787, 0.12270781397819519, -0.04741548001766205, -0.058844778686761856, -0.10867093503475189, 0.11951731890439987, 0.09240911155939102, 0.08581765741109848, -0.016103360801935196], [0.0055661750957369804, -0.22744575142860413, 0.06231844425201416, 0.03903207927942276, -0.07114081084728241, -0.06665956974029541, 0.12906835973262787, 0.026306184008717537, 0.160206601023674, -0.09513691812753677], [0.011456388980150223, -0.17533299326896667, 0.1650179624557495, 0.015718623995780945, 0.06507307291030884, -0.09376323223114014, 0.262172669172287, 0.047190405428409576, 0.28943851590156555, -0.12006201595067978], [-0.010329552926123142, -0.1588902324438095, 0.09116144478321075, 0.08570513129234314, 0.060582540929317474, -0.07639658451080322, 0.23344001173973083, 0.1162237673997879, 0.23890818655490875, -0.02944810688495636], [0.13651680946350098, -0.11062631756067276, 0.20558130741119385, 0.08735158294439316, 0.08322221040725708, 0.06939674913883209, 0.2706957161426544, 0.1339954435825348, 0.23611478507518768, -0.12214544415473938], [0.21605432033538818, -0.15679588913917542, 0.2451843023300171, 0.15203788876533508, -0.07596663385629654, 0.010160678997635841, 0.2801362872123718, 0.008823661133646965, 0.2785470485687256, -0.10380073636770248], [0.10709299147129059, -0.12905345857143402, 0.2693444788455963, 0.11227469146251678, 0.05080775171518326, 0.008338730782270432, 0.2023802399635315, -0.014192147180438042, 0.11948221921920776, -0.0819871574640274], [0.13486513495445251, 0.019409291446208954, 0.22712507843971252, 0.08126413077116013, 0.16742748022079468, 0.03300226479768753, 0.179300457239151, -0.04328472912311554, -0.0036782585084438324, -0.2258705347776413], [-0.013328172266483307, -0.09077846258878708, 0.10095072537660599, -0.11648524552583694, 0.10110209882259369, 0.15268582105636597, 0.20894737541675568, -0.10766584426164627, -0.14728663861751556, -0.2428356409072876], [-0.13325196504592896, -0.03565218672156334, 0.07193652540445328, -0.2731529474258423, 0.15735530853271484, 0.3142452538013458, 0.03102758340537548, -0.014443548396229744, -0.19755524396896362, -0.026809077709913254], [-0.11492053419351578, -0.08002278208732605, 0.14665549993515015, -0.15385478734970093, 0.11549568176269531, 0.16336509585380554, -0.07165100425481796, 0.10897590219974518, -0.10662969201803207, 0.13211077451705933], [0.06137038767337799, -0.005285951308906078, 0.0656081885099411, -0.09630149602890015, 0.12042968720197678, 0.11544302105903625, -0.0407525897026062, 0.10550948232412338, -0.10004277527332306, 0.29607611894607544], [0.08228020370006561, 0.06672056019306183, 0.14394351840019226, 0.043429888784885406, 0.08522731065750122, -0.04303523525595665, 0.06768698245286942, 0.18469937145709991, -0.09932181239128113, 0.2575700283050537], [0.0006581792840734124, 0.03339342027902603, 0.13204246759414673, -0.05755337327718735, -0.002665531123057008, 0.13000844419002533, 0.08501126617193222, 0.10498885810375214, -0.041503310203552246, 0.1987764984369278], [-0.011166335083544254, -0.11007074266672134, 0.012782540172338486, -0.07158797979354858, 0.011768724769353867, 0.044686753302812576, 0.0774969607591629, 0.07553070783615112, 0.1512223333120346, 0.19767843186855316], [-0.12498626857995987, -0.03924592584371567, 0.023349743336439133, 0.0066186971962451935, -0.14589352905750275, -0.04342975094914436, 0.0842372253537178, 0.15997916460037231, 0.12770532071590424, 0.23060409724712372], [-0.051460932940244675, -0.1341063231229782, -0.04547438025474548, 0.007689180783927441, -0.12511011958122253, -0.01313837245106697, -0.0008492553606629372, 0.10577237606048584, 0.25548145174980164, 0.1624603569507599], [0.03328702598810196, -0.03387165442109108, -0.1528661549091339, 0.05786699801683426, -0.06810203939676285, -0.10314258188009262, 0.12635427713394165, 0.08902359008789062, 0.16237427294254303, 0.07802522927522659], [0.1537686288356781, -0.0059873005375266075, -0.1514730155467987, 0.08801832795143127, -0.1387586146593094, -0.1392301321029663, 0.15017516911029816, -0.06897465139627457, 0.2685389518737793, -0.03165104240179062], [0.11618876457214355, 0.07058392465114594, -0.09331978857517242, 0.04441811889410019, -0.0432572178542614, 0.011909225024282932, 0.04485434666275978, -0.17277692258358002, 0.11042659729719162, -0.0653875395655632], [-0.032947082072496414, 0.020577119663357735, -0.09926347434520721, -0.13452160358428955, 0.03750060126185417, 0.19106829166412354, 0.09081055223941803, -0.03490258380770683, -0.07371576875448227, -0.03733696788549423], [0.019069582223892212, 0.04139424115419388, -0.01938546635210514, 0.010213708505034447, 0.0041528609581291676, 0.043491583317518234, 0.09176424890756607, -0.09021058678627014, -0.15641453862190247, -0.07185539603233337], [0.021152516826987267, -0.054984200745821, 0.08181191235780716, -0.08652900904417038, 0.024319501593708992, 0.007609845604747534, 0.018518945202231407, -0.08958379179239273, -0.03392031416296959, 0.04657813534140587], [0.07772111147642136, -0.04686007276177406, -0.007930072955787182, 0.08248616009950638, 0.07290857285261154, -0.054563745856285095, 0.07104683667421341, -0.027372976765036583, -0.002224885392934084, 0.05273082107305527], [-0.000619148719124496, 0.03671465441584587, 0.022474907338619232, 0.05543707311153412, -0.08230233937501907, -0.1041010245680809, -0.03212872892618179, -0.002818736946210265, 0.04079335555434227, -0.012483019381761551], [-0.0016602360410615802, 0.031147444620728493, -0.012806628830730915, 0.03846865892410278, -0.08667735755443573, -0.16062305867671967, -0.02195517159998417, -0.050454702228307724, 0.12918180227279663, 0.03350389376282692], [-0.10691558569669724, -0.006683567073196173, -0.005575696937739849, 0.009668184444308281, 0.0007889275439083576, -0.07080094516277313, -0.041713815182447433, 0.05505761131644249, 0.03686987981200218, 0.0935116559267044], [-0.06973592936992645, -0.06886038184165955, 0.0031814798712730408, -0.029663635417819023, -0.06302514672279358, -0.13299542665481567, 0.10245189815759659, 0.0876786932349205, 0.1548672765493393, 0.09423401951789856], [0.07249090820550919, -0.1708601862192154, 0.05314977467060089, -4.6676723286509514e-05, -0.07628793269395828, -0.10722626000642776, 0.17937366664409637, 0.030609849840402603, 0.02093474008142948, -0.011613814160227776], [0.03569740802049637, -0.17174528539180756, 0.19132591784000397, 0.12363745272159576, -0.12661299109458923, -0.05664437264204025, 0.21428105235099792, 0.08853737264871597, 0.23135805130004883, -0.14804285764694214], [0.13940206170082092, -0.19162656366825104, 0.11492202430963516, 0.14113140106201172, -0.07536741346120834, -0.08843221515417099, 0.24035948514938354, 0.06931491941213608, 0.19746538996696472, -0.03505376726388931], [0.21965180337429047, -0.17775318026542664, 0.15919417142868042, -0.01577923819422722, 0.035497505217790604, 0.01281107496470213, 0.1954365372657776, 0.10955461114645004, 0.10013815760612488, -0.08522434532642365], [0.23703673481941223, -0.10817034542560577, 0.13892436027526855, 0.135542631149292, -0.011805900372564793, 0.03572169318795204, 0.1399974375963211, 0.023165972903370857, 0.14714832603931427, -0.08064187318086624], [0.23020991683006287, -0.039744067937135696, 0.18091055750846863, 0.04871976375579834, -0.06071394681930542, -0.04113113507628441, 0.1913084238767624, 0.05969804897904396, 0.1495489478111267, -0.06125878542661667], [0.1618478149175644, -0.03404533863067627, 0.07616759836673737, -0.018750879913568497, 0.08764214813709259, 0.021273484453558922, 0.21574178338050842, 0.055099233984947205, 0.13338971138000488, -0.18171051144599915], [0.15009349584579468, -0.04771951586008072, 0.2370571792125702, -0.1187058687210083, 0.036107562482357025, 0.20535168051719666, 0.09981976449489594, -0.04165102168917656, -0.045167841017246246, -0.18220198154449463], [-0.12350237369537354, 0.056110695004463196, 0.09735259413719177, -0.23110640048980713, 0.088913694024086, 0.2155030518770218, 0.06241878494620323, 0.013697491027414799, -0.14870847761631012, -0.10877841711044312], [-0.10614815354347229, -0.11373984068632126, 0.053321510553359985, -0.1601039320230484, 0.04410561919212341, 0.17650991678237915, 0.04776982218027115, -0.02579653449356556, -0.10806667804718018, 0.05738341435790062], [-0.19358301162719727, -0.04553589969873428, 0.07405274361371994, -0.22567243874073029, 0.09905565530061722, 0.14711081981658936, 0.028916431590914726, 0.1741073727607727, -0.11356808990240097, 0.18895848095417023], [0.0426914282143116, -0.018004536628723145, 0.12936045229434967, -0.059339772909879684, 0.12483599781990051, 0.028762057423591614, 0.1285901665687561, 0.21361541748046875, 0.024157380685210228, 0.30359724164009094], [0.1448606252670288, 0.02754882350564003, 0.16718465089797974, -0.08276023715734482, 0.06904113292694092, 0.06870017200708389, 0.07218719273805618, 0.1619080901145935, 0.06215570494532585, 0.18311822414398193], [0.07220286130905151, -0.06214571371674538, 0.0712355226278305, -0.04158543795347214, 0.08975450694561005, 0.06778509169816971, 0.05523356422781944, 0.12465646862983704, 0.03756149485707283, 0.2786543667316437], [-0.07717132568359375, -0.07981634140014648, 0.05586058273911476, -0.07127979397773743, 0.026460234075784683, 0.04307932034134865, 0.06269866228103638, 0.0876462385058403, 0.13790515065193176, 0.23138423264026642], [-0.05239533632993698, -0.08548734337091446, -0.019190741702914238, 0.046155381947755814, -0.11002115160226822, 0.07446163892745972, 0.05039672926068306, 0.11310507357120514, 0.17897480726242065, 0.17699876427650452], [0.11755497008562088, -0.139314666390419, -0.10503194481134415, 0.012090347707271576, -0.1896757334470749, 0.03290897235274315, 0.013480091467499733, 0.12234119325876236, 0.21761858463287354, 0.14876452088356018], [0.11609140038490295, -0.0774635598063469, -0.10254458338022232, 0.11144611984491348, -0.24168437719345093, -0.02245909348130226, 0.02278287149965763, 0.05894508957862854, 0.1561507284641266, 0.12609945237636566], [0.19720596075057983, -0.07853243499994278, -0.10247853398323059, 0.12713831663131714, -0.15012824535369873, -0.1292390674352646, 0.0011696330038830638, -0.16166020929813385, 0.27924683690071106, -0.008196116425096989], [0.15545660257339478, -0.08248115330934525, -0.23495323956012726, 0.11522926390171051, -0.09456474334001541, 0.0569293275475502, 0.09715869277715683, -0.17414590716362, 0.20007671415805817, -0.022052640095353127], [-0.03635340929031372, -0.0343640111386776, -0.09135603904724121, 0.019320404157042503, -0.020273739472031593, 0.08765337616205215, -0.06986186653375626, -0.011666210368275642, -0.00015238329069688916, -0.06534155458211899], [0.014745809137821198, 0.11200469732284546, 0.02070060931146145, 0.021822545677423477, -0.0037520877085626125, 0.12281917780637741, -0.005948787089437246, -0.0974150151014328, -0.16157616674900055, 0.012048076838254929], [-0.08575426042079926, 0.08764688670635223, -0.02259153313934803, 0.011201092973351479, 0.010205415077507496, 0.05869992822408676, -0.0045495000667870045, 0.06656970828771591, 0.0533432699739933, 0.09330698847770691], [0.05248488485813141, 0.01775159314274788, 0.07125496864318848, 0.0349266454577446, -0.06556102633476257, 0.0406329482793808, 0.05019377917051315, 0.05748258903622627, -0.02171846479177475, -0.018355803564190865], [0.051586002111434937, 0.0917859897017479, 0.038186557590961456, -0.0757598876953125, 0.05306614935398102, -0.013295523822307587, -0.049589987844228745, 0.0033795658964663744, 0.03222373127937317, -0.052135009318590164], [-0.06032651662826538, -0.0287647545337677, -0.07858365029096603, 0.16122986376285553, -0.10232275724411011, -0.04566240310668945, -0.0036364721599966288, -0.0607941709458828, 0.16693417727947235, 0.10477674007415771], [-0.048527974635362625, -0.05174439400434494, -0.002580079948529601, 0.06218376383185387, -0.0478070005774498, -0.06649590283632278, -0.024769823998212814, 0.08214331418275833, 0.11555126309394836, 0.07296975702047348], [0.07750886678695679, -0.12473861873149872, 0.12466149032115936, -0.05032045766711235, -0.0007712948136031628, -0.06826183944940567, 0.06340879201889038, 0.08664960414171219, 0.03852364793419838, 0.10955382138490677], [0.09015574306249619, -0.09464070945978165, 0.07954321801662445, 0.010885803028941154, -0.08788644522428513, -0.04732763394713402, 0.05226505920290947, 0.05506093427538872, -0.02630288526415825, 0.050324954092502594], [0.14055223762989044, -0.14999063313007355, 0.13131411373615265, 0.16872638463974, -0.177700012922287, -0.11383885145187378, 0.16537779569625854, 0.04042517766356468, 0.1264646351337433, 0.07698377966880798], [0.11297138035297394, -0.06996123492717743, 0.10752691328525543, 0.024062946438789368, -0.1931951493024826, 0.028135403990745544, 0.17014548182487488, 0.10017527639865875, 0.1663447916507721, 0.10712024569511414], [0.1520082950592041, 0.014868577942252159, 0.04425825551152229, 0.1360742151737213, -0.03529730439186096, 0.06309971958398819, 0.06290832906961441, 0.12184353917837143, 0.20058698952198029, 0.06840968132019043], [0.2803539037704468, 0.022719308733940125, 0.10145098716020584, 0.022583549842238426, 0.029605068266391754, 0.08315914124250412, 0.13473989069461823, 0.03386100009083748, 0.23980818688869476, -0.0053720795549452305], [0.30290156602859497, 0.04237130284309387, 0.08189059048891068, 0.12582442164421082, -0.07112255692481995, 0.023732922971248627, 0.035547222942113876, 0.06432240456342697, 0.24903926253318787, -0.04169856756925583], [0.2928929030895233, 0.10182156413793564, 0.06403499096632004, -0.044336117804050446, -0.002511202823370695, 0.08759717643260956, 0.20357920229434967, 0.06267517805099487, 0.05751955881714821, -0.017994027584791183], [0.10204322636127472, 0.06550774723291397, 0.11538096517324448, -0.06269712001085281, 0.08985485881567001, 0.23211777210235596, 0.16416972875595093, 0.07865763455629349, -0.1699867993593216, -0.12214311957359314], [-0.1287955939769745, -0.03662148863077164, 0.05619817599654198, -0.3014920949935913, 0.002224980155006051, 0.24470657110214233, 0.11207681894302368, 0.04034064710140228, -0.167735293507576, 0.09652252495288849], [-0.13369616866111755, -0.019213028252124786, 0.0027606040239334106, -0.1599287986755371, 0.08895347267389297, 0.18073271214962006, 0.01586044579744339, -0.01860714890062809, -0.059925902634859085, 0.13275933265686035], [-0.146749809384346, -0.04935748875141144, 0.10119243711233139, -0.13321571052074432, 0.009452827274799347, 0.20018157362937927, 0.04845919460058212, 0.08736556768417358, 0.060912515968084335, 0.25904688239097595], [0.010851772502064705, 0.05281246826052666, 0.1332157850265503, -0.05383513495326042, 0.054120562970638275, 0.11892203986644745, 0.11319654434919357, 0.07151932269334793, 0.06538170576095581, 0.22121469676494598], [0.15807077288627625, -0.02221911959350109, 0.12445802986621857, -0.05600229278206825, 0.08641659468412399, -0.021061750128865242, 0.007576166186481714, 0.14040127396583557, 0.07398159056901932, 0.3219274580478668], [0.11777789890766144, 0.04995981976389885, 0.04449308291077614, -0.032613180577754974, 0.0479392446577549, 0.04794178158044815, 0.06757852435112, 0.041148144751787186, 0.1500985473394394, 0.27855783700942993], [0.15132524073123932, -0.03909836336970329, -0.0395037904381752, 0.09215492010116577, 0.014887046068906784, 0.08613256365060806, 0.08025255054235458, 0.10047636181116104, 0.06078585609793663, 0.13804835081100464], [0.11143268644809723, -0.022595129907131195, 0.029711144044995308, 0.011166087351739407, -0.11767654120922089, -0.019628699868917465, 0.09345363080501556, 0.12135856598615646, 0.24012236297130585, 0.15124279260635376], [0.1997748464345932, 0.03074009343981743, -0.10065873712301254, 0.003228812012821436, -0.2414352297782898, -0.14560002088546753, 0.03517039865255356, -0.09200669825077057, 0.12119641155004501, 0.10781261324882507], [0.06102556735277176, -0.01933875121176243, -0.11948525905609131, 0.11272275447845459, -0.11397451162338257, -0.029457833617925644, -0.011683868244290352, 0.02330976165831089, 0.26225292682647705, 0.0574294812977314], [0.15914012491703033, -0.059915341436862946, -0.14264041185379028, 0.07570448517799377, -0.14530599117279053, -0.03261888772249222, 0.002118948381394148, -0.1524442732334137, 0.21312133967876434, 0.027197381481528282], [0.039297934621572495, -0.03864147141575813, -0.06436824798583984, -0.007393301464617252, -0.13565626740455627, 0.015137987211346626, 0.03031075745820999, -0.18459945917129517, 0.2131437361240387, 0.03433458134531975], [0.03618805110454559, -0.014531262218952179, -0.14446011185646057, 0.049728408455848694, -0.04443967714905739, 0.11866991966962814, -0.10274244844913483, -0.08596190065145493, 0.0573977567255497, 0.12442664802074432], [-0.047355253249406815, 0.06314178556203842, -0.013690979219973087, -0.06796997040510178, -0.019260581582784653, 0.06342866271734238, -0.11397439986467361, 0.0021353433839976788, -0.13800294697284698, 0.17404146492481232], [0.036513153463602066, 0.06435952335596085, 0.042095161974430084, 0.07632473111152649, -0.08049258589744568, 0.04166462644934654, -0.06943333894014359, -0.04304947331547737, 0.0130457216873765, 0.006212891079485416], [-0.04603118821978569, -0.01501983031630516, 0.02160562574863434, 0.07565071433782578, 0.015065203420817852, 0.05833561718463898, 0.043467648327350616, -0.023685958236455917, -0.04424426704645157, -0.060725294053554535], [-0.07095970213413239, -0.006757799535989761, -0.018110839650034904, -0.06125388294458389, 0.08661753684282303, -0.02620181255042553, 0.023818697780370712, -0.04782802239060402, 0.06494305282831192, 0.04738612845540047], [0.05870676040649414, 0.12807396054267883, -0.07442769408226013, -0.015561661683022976, 0.03607787936925888, -0.0987723246216774, 0.017068691551685333, -0.07805601507425308, 0.01377454400062561, -0.07126453518867493], [0.05930954962968826, -0.02126787044107914, -0.02605513297021389, 0.07887910306453705, -0.018755167722702026, 0.0434141606092453, -0.11126577854156494, -0.006239965092390776, -0.0845445916056633, 0.004483688622713089], [0.14122922718524933, -0.03587858006358147, 0.15337683260440826, -0.006050844211131334, -0.06768451631069183, 0.021116482093930244, 0.008466750383377075, 0.07773764431476593, -0.07248277217149734, 0.12366466969251633], [0.1758778989315033, -0.057406239211559296, 0.1694696694612503, 0.1665779948234558, -0.1770135760307312, 0.015203275717794895, -0.12315739691257477, 0.024470454081892967, -0.11005178093910217, 0.10389711707830429], [0.1810637265443802, -0.006821996066719294, 0.0229418333619833, 0.04926764592528343, -0.15441936254501343, 0.08908021450042725, -0.059613052755594254, 0.16968542337417603, 0.026102237403392792, 0.0714886337518692], [0.21890594065189362, -0.015528812073171139, 0.09466404467821121, 0.08326011896133423, -0.1447630375623703, -0.02123875916004181, -0.0230136476457119, 0.12076971679925919, 0.1112690344452858, 0.0970713272690773], [0.16797283291816711, 0.04781012237071991, 0.11645392328500748, 0.1350482702255249, -0.13716118037700653, 0.11351438611745834, 0.038027212023735046, 0.11348803341388702, 0.22642290592193604, 0.07434441894292831], [0.2431926429271698, -0.004446136765182018, 0.0440102219581604, 0.0053843786008656025, -0.10148510336875916, 0.08289831876754761, 0.017081905156373978, 0.09178027510643005, 0.150631383061409, 0.15271584689617157], [0.22006207704544067, 0.029165199026465416, -0.033570267260074615, 0.004861746449023485, 0.02424248866736889, 0.034892719238996506, 0.09519484639167786, 0.07364099472761154, 0.22866776585578918, 0.05120537430047989], [0.08059503138065338, -0.03192511945962906, 0.026632362976670265, -0.053684961050748825, 0.025575997307896614, 0.1717851310968399, 0.1098179817199707, 0.009284001775085926, 0.15115530788898468, 0.2135515660047531], [0.017291497439146042, 0.020515698939561844, 0.1953943818807602, -0.22039352357387543, -0.02735077403485775, 0.2190392017364502, 0.16998349130153656, 0.003395352978259325, -0.1460675597190857, 0.10307919234037399], [-0.22758705914020538, 0.05755869299173355, 0.021176449954509735, -0.2778184115886688, -0.10864973813295364, 0.34380465745925903, -0.016418546438217163, 0.061635103076696396, -0.11168219894170761, 0.21589045226573944], [-0.23055216670036316, 0.13259971141815186, 0.10957738757133484, -0.23991714417934418, -0.011566836386919022, 0.21603082120418549, 0.07153645157814026, 0.09537441283464432, 0.015414690598845482, 0.20923970639705658], [-0.13948486745357513, -0.006489241030067205, 0.07239703834056854, -0.08884275704622269, -0.083567775785923, 0.14781981706619263, -0.09226537495851517, 0.06704120337963104, 0.08093516528606415, 0.18863026797771454], [0.0638413056731224, -0.04341303929686546, 0.10295350849628448, 0.06565240770578384, 0.0014822166413068771, 0.005197473801672459, 0.09704373776912689, 0.1623116433620453, 0.05173443630337715, 0.21015292406082153], [0.25821301341056824, -0.026431739330291748, 0.05830097943544388, -0.01677255891263485, 0.08272407948970795, -0.044147927314043045, 0.05752092972397804, 0.21584472060203552, 0.05608303099870682, 0.2551478147506714], [0.19078640639781952, -0.011105665937066078, 0.051807768642902374, 0.04211132973432541, -0.004792261403053999, 0.016605501994490623, 0.03580162301659584, 0.07950419932603836, 0.0786450207233429, 0.1435346156358719], [0.283927857875824, 0.0005966393509879708, 0.0823904350399971, 0.058093827217817307, -0.09382002800703049, -0.02252497896552086, 0.012765340507030487, 0.061557523906230927, 0.1384323537349701, 0.1777954399585724], [0.14705458283424377, -0.018243595957756042, -0.026681115850806236, 0.14771468937397003, -0.0741799920797348, 0.007591496221721172, -0.028864579275250435, 0.011958860792219639, 0.20978154242038727, 0.10129161924123764], [0.11374756693840027, -0.0660829097032547, -0.010318811982870102, 0.14743319153785706, -0.17212486267089844, 0.025991851463913918, 0.12163283675909042, -0.116244375705719, 0.12786482274532318, 0.09366913884878159], [0.13743144273757935, -0.02843860164284706, -0.017111364752054214, 0.11043873429298401, -0.15643881261348724, -0.01062431838363409, 0.045229583978652954, -0.1262659728527069, 0.2145024538040161, 0.0011076650116592646], [0.19698800146579742, 0.015388526022434235, -0.16012322902679443, 0.10210735350847244, -0.18454726040363312, 0.013919653370976448, 0.008281957358121872, -0.04948417469859123, 0.18251392245292664, -0.08638304471969604], [0.015577971003949642, 0.04737263172864914, -0.1552492380142212, 0.05727171152830124, -0.2002638429403305, -0.005948877893388271, 0.010464252904057503, -0.08243177831172943, 0.1733081191778183, 0.06348203122615814], [-0.01830538548529148, -0.01916654221713543, -0.029196711257100105, -0.08586916327476501, -0.09977778047323227, 0.08833153545856476, -0.11717330664396286, -0.14819082617759705, -0.07366065680980682, 0.11433468014001846], [-0.029441066086292267, 0.1109696701169014, -0.08933568745851517, -0.018684832379221916, -0.08426375687122345, 0.07732135057449341, -0.04574087634682655, -0.0993858054280281, -0.10247725993394852, 0.07530514895915985], [0.06769463419914246, 0.09235721826553345, -0.05762280151247978, 0.040864333510398865, -0.05458930507302284, 0.06258722394704819, -0.02230452001094818, -0.09543018788099289, -0.0608551986515522, 0.014499519020318985], [-0.030215580016374588, 0.08418144285678864, 0.01246692705899477, 0.036663275212049484, 0.027596576139330864, -0.05814202502369881, 0.03800889477133751, 0.03398086503148079, 0.02111067809164524, -0.007212919183075428], [0.09598372876644135, -0.01626560464501381, -0.009245914407074451, -0.03413070738315582, 0.00189825554843992, -0.02069113962352276, -0.039487630128860474, -0.08046717941761017, -0.09463606029748917, 0.05423707515001297], [0.032163698226213455, 0.0792832151055336, 0.058556921780109406, 0.003134995000436902, 0.055754147469997406, 0.029495371505618095, 0.041206397116184235, 0.022804658859968185, -0.09379784762859344, -0.10765977948904037], [0.01108018308877945, 0.05110246315598488, 0.05479380115866661, 0.007035149727016687, 0.09492696821689606, 0.004685435444116592, -0.00432791281491518, 5.3863972425460815e-05, -0.1884087771177292, -0.06635415554046631], [0.10703010112047195, 0.12527364492416382, 0.09169512987136841, 0.08562593907117844, -0.030172977596521378, 0.0900677815079689, -0.02110435627400875, 0.040511202067136765, -0.09089548140764236, 0.08752813935279846], [0.18969902396202087, 0.08299273997545242, 0.02309458889067173, 0.09390819817781448, 0.005809665657579899, 0.1030963584780693, -0.06520108133554459, 0.02706405520439148, -0.057556089013814926, 0.10661614686250687], [0.15698355436325073, 0.15060964226722717, 0.007704474031925201, 0.09109821915626526, -0.07810080796480179, 0.10942145437002182, -0.06225389242172241, 0.021967818960547447, 0.0165528804063797, 0.12518011033535004], [0.08999215811491013, 0.07717341929674149, 0.10609011352062225, 0.0773906335234642, -0.21440063416957855, 0.08071103692054749, -0.058961283415555954, 0.14062117040157318, 0.07984609156847, 0.15703971683979034], 